[{"name": "conv_1_1", "input_shape": [null, 128, 128, 3], "output_shape": [null, 126, 126, 10], "num_neurons": 10, "weights": [{"bias": -0.007839842699468136, "weights": [[[0.13462428748607635, -0.21780116856098175, -0.23169156908988953], [-0.15689893066883087, -0.23506580293178558, 0.03597763180732727], [0.09096301347017288, 0.05429521203041077, -0.15742386877536774]], [[-0.005155473481863737, 0.17567047476768494, -0.16158819198608398], [-0.015793101862072945, 0.09943652898073196, -0.20041204988956451], [0.01807321235537529, 0.005440788809210062, -0.12749160826206207]], [[-0.0688478872179985, -0.0026829508133232594, -0.15893548727035522], [-0.013314691372215748, -0.05187424272298813, -0.11851811408996582], [0.06848642230033875, -0.059206508100032806, -0.12058696895837784]]]}, {"bias": -0.11398594826459885, "weights": [[[0.06791792064905167, -0.0717046856880188, 0.14652428030967712], [0.261644572019577, 0.03748874366283417, 0.05729098990559578], [0.18646614253520966, 0.1985618770122528, 0.27614980936050415]], [[0.08369673788547516, 0.11557908356189728, 0.07518526911735535], [-0.21303211152553558, -0.13229894638061523, -0.13593629002571106], [0.1949169784784317, 0.024933796375989914, 0.03888851776719093]], [[0.19253097474575043, -0.2136812061071396, 0.0014599545393139124], [-0.25563523173332214, -0.17892365157604218, -0.004213320557028055], [-0.134652778506279, -0.008366699330508709, -0.05943652242422104]]]}, {"bias": 0.04190336540341377, "weights": [[[-0.10308365523815155, 0.17760537564754486, 0.2759977877140045], [-0.1761513352394104, -0.08224696666002274, -0.09626280516386032], [-0.05482160672545433, 0.15116074681282043, -0.08655739575624466]], [[-0.043526556342840195, -0.0016573440516367555, 0.0797729343175888], [-0.2083057016134262, 0.04464764520525932, 0.13740795850753784], [-0.15389852225780487, -0.1790599822998047, 0.09878309816122055]], [[-0.22608138620853424, -0.05564187467098236, 0.11840678006410599], [-0.20848314464092255, 0.0879037082195282, 0.18165059387683868], [0.02291797660291195, -0.03554258123040199, 0.28518417477607727]]]}, {"bias": -0.0117865689098835, "weights": [[[0.22547776997089386, -0.06823955476284027, -0.13184413313865662], [0.011250794865190983, -0.09254422783851624, -0.1815272569656372], [0.13697797060012817, -0.16521726548671722, -0.09381573647260666]], [[-0.12857934832572937, -0.17884939908981323, 0.16182270646095276], [0.22620327770709991, -0.012470712885260582, 0.14411742985248566], [-0.005512000527232885, 0.1306794285774231, -0.04507529363036156]], [[-0.1315515637397766, 0.07474951446056366, 0.09895400702953339], [0.1700315624475479, -0.23442640900611877, -0.0723162591457367], [0.23437778651714325, -0.21437184512615204, 0.020918389782309532]]]}, {"bias": -0.01202281005680561, "weights": [[[-0.20708081126213074, 0.053474195301532745, 0.15816164016723633], [-0.10950998216867447, 0.2734917998313904, 0.14733341336250305], [-0.10034934431314468, 0.11806172132492065, -0.10971339792013168]], [[0.16825413703918457, -0.07909715175628662, -0.013951646164059639], [0.17101402580738068, -0.026070501655340195, 0.15215399861335754], [-0.14191582798957825, 0.26420342922210693, -0.1082814559340477]], [[-0.1489119529724121, 0.21156848967075348, -0.18783129751682281], [-0.1741521805524826, -0.04296643286943436, 0.04604928940534592], [0.10358814150094986, 0.18789051473140717, -0.24427500367164612]]]}, {"bias": 0.022642748430371284, "weights": [[[0.09117432683706284, 0.1417488306760788, -0.19335207343101501], [-0.14725381135940552, -0.023442355915904045, 0.15268702805042267], [0.23639747500419617, -0.09471017122268677, -0.0864582359790802]], [[-0.07269474864006042, 0.0980280414223671, -0.13516776263713837], [-0.10232626646757126, -0.22371000051498413, -0.010253006592392921], [-0.08624826371669769, -0.10922891646623611, 0.2703597843647003]], [[-0.06699591130018234, 0.13779379427433014, -0.19148506224155426], [-0.154302179813385, -0.0816894993185997, -0.16531357169151306], [0.26484450697898865, 0.3450859487056732, 0.11871157586574554]]]}, {"bias": -0.0710107833147049, "weights": [[[0.17962683737277985, -0.2875688970088959, -0.08491101861000061], [0.1323544681072235, 0.008211074396967888, -0.019692815840244293], [-0.03013589046895504, 0.23449261486530304, 0.21635206043720245]], [[0.11640457808971405, -0.27450263500213623, 0.13995696604251862], [0.16641680896282196, -0.03543056920170784, -0.006248025689274073], [0.1731163114309311, 0.15737766027450562, 0.016464978456497192]], [[0.041759051382541656, -0.08602830767631531, -0.20011736452579498], [0.08380299061536789, 0.08220180124044418, -0.07961928844451904], [-0.04523777961730957, 0.07328981906175613, -0.017857301980257034]]]}, {"bias": -0.020632745698094368, "weights": [[[-0.11259714514017105, -0.25859594345092773, 0.038530007004737854], [-0.10100767016410828, -0.2376711666584015, -0.07436919212341309], [0.06446827203035355, 0.006119888741523027, 0.16369743645191193]], [[0.18723277747631073, -0.1879233568906784, -0.1690809428691864], [-0.144363135099411, -0.07872964441776276, 0.23688754439353943], [-0.08715467900037766, -0.15524224936962128, -0.11569689214229584]], [[-0.13370931148529053, -0.1280001401901245, -0.05220605805516243], [-0.09496591985225677, -0.06224343553185463, 0.08248185366392136], [0.15816108882427216, -0.3130331039428711, 0.10055769979953766]]]}, {"bias": -0.050461117178201675, "weights": [[[-0.033948320895433426, -0.04482875019311905, -0.07968741655349731], [0.026426002383232117, -0.23490409553050995, -0.3345200717449188], [0.16274379193782806, 0.03243281692266464, 0.01009292434900999]], [[-0.05216488987207413, 0.18779082596302032, -0.18985822796821594], [0.05198735371232033, 0.2001926749944687, -0.1246928721666336], [0.1951492577791214, 0.19742456078529358, 0.1360761672258377]], [[-0.09668091684579849, 0.13345342874526978, -0.07211028784513474], [0.020188264548778534, -0.06413330137729645, -0.2337738275527954], [0.13595423102378845, 0.10427632927894592, 0.1416209638118744]]]}, {"bias": -0.003676528576761484, "weights": [[[0.06779511272907257, -0.1791565865278244, -0.1662052571773529], [0.0730014368891716, 0.12995827198028564, -0.1905556321144104], [0.1276298463344574, -0.13073204457759857, 0.008006898686289787]], [[-0.21279527246952057, 0.014706285670399666, -0.08231942355632782], [-0.1952197402715683, -0.1327434778213501, -0.060520730912685394], [0.08355038613080978, -0.196123406291008, -0.2593142092227936]], [[-0.0402078740298748, 0.14658710360527039, 0.2367277443408966], [-0.0728352963924408, -0.10970228165388107, 0.13875553011894226], [-0.200271874666214, 0.05107332393527031, -0.09334374964237213]]]}]}, {"name": "conv_1_2", "input_shape": [null, 126, 126, 10], "output_shape": [null, 124, 124, 10], "num_neurons": 10, "weights": [{"bias": 0.012731770053505898, "weights": [[[0.16832870244979858, -0.0828917846083641, 0.12107708305120468, -0.07094205170869827, -0.12229548394680023, 0.12883076071739197, 0.07717213034629822, 0.21066442131996155, 0.05352400988340378, -0.13640911877155304], [0.05593862384557724, -0.14212960004806519, 0.1250874549150467, -0.0013214461505413055, -0.008212585933506489, 0.23140333592891693, -0.17355170845985413, 0.060500286519527435, 0.044824711978435516, -0.11414450407028198], [0.03087354451417923, -0.1076924204826355, 0.0732119083404541, -0.01627373695373535, 0.07929035276174545, -0.03466812148690224, -0.11698583513498306, -0.00717735942453146, 0.0739772617816925, -0.1121392697095871]], [[0.16875644028186798, -0.1252814084291458, -0.005521895829588175, 0.17505834996700287, -0.060311511158943176, 0.2818872332572937, -0.060040466487407684, 0.10020344704389572, -0.031605105847120285, -0.17411766946315765], [0.004222429357469082, -0.07241304963827133, 0.19088983535766602, 0.20222273468971252, -0.029975242912769318, 0.031134039163589478, 0.0314408615231514, 0.19823473691940308, 0.03447715938091278, -0.11523072421550751], [-0.03678774833679199, -0.039541713893413544, 0.16313746571540833, -0.13169579207897186, 0.009602002799510956, 0.020851274952292442, 0.20174112915992737, 0.056280381977558136, -0.1055615171790123, 0.07234195619821548]], [[0.011812041513621807, -0.0983193889260292, 0.14920678734779358, -0.025285933166742325, -0.1283908486366272, 0.02956623211503029, 0.13691122829914093, 0.0438636876642704, 0.04065806791186333, -0.17762473225593567], [0.02127203904092312, 0.010922521352767944, -0.051640383899211884, 0.03509797528386116, -0.028600865975022316, 0.11864212900400162, 0.21506232023239136, 0.14792150259017944, -0.02501128427684307, 0.1217188611626625], [0.10060843080282211, 0.20849081873893738, -0.1798660159111023, 0.1605159491300583, -0.1212102547287941, -0.23277558386325836, 0.23276521265506744, 0.07714749872684479, 0.0799853578209877, 0.07548979669809341]]]}, {"bias": 0.06637489050626755, "weights": [[[-0.023680781945586205, -0.005962683819234371, 0.034935690462589264, 0.015534061007201672, 0.125251904129982, 0.2172858864068985, -0.12398943305015564, 0.03996622562408447, -0.024658789858222008, 0.15252374112606049], [-0.10151799768209457, -0.09338188171386719, -0.26907646656036377, 0.007570366375148296, 0.12187565863132477, -0.12608686089515686, -0.10235133767127991, 0.05121610313653946, -0.18967263400554657, 0.12795701622962952], [-0.01310804020613432, -0.06931459903717041, -0.20252852141857147, 0.07953320443630219, -0.05226738005876541, -0.005427883937954903, 0.05872300639748573, 0.14408166706562042, -0.17407524585723877, 0.08108200877904892]], [[-0.07441945374011993, 0.14726188778877258, -0.2421945482492447, 0.13180288672447205, -0.14501743018627167, 0.023552924394607544, 0.08682936429977417, 0.19235952198505402, 0.16653691232204437, 0.07265418022871017], [-0.17464980483055115, -0.2139899730682373, -0.10665197670459747, 0.005330669693648815, -0.17666560411453247, 0.11271519213914871, -0.11758740991353989, 0.010848221369087696, -0.08170595020055771, -0.13571211695671082], [-0.16197577118873596, -0.059832535684108734, -0.18772920966148376, -0.01982724666595459, -0.21863925457000732, 0.08838185667991638, 0.002435258124023676, -0.02217387780547142, -0.18859614431858063, -0.04753691703081131]], [[0.16465015709400177, 0.05990685150027275, -0.24267172813415527, 0.03944266587495804, -0.22561043500900269, 0.2648463547229767, -0.09447503834962845, 0.06496553122997284, -0.16221271455287933, -0.025210510939359665], [-0.020601911470294, -0.03813381865620613, 0.05568191781640053, -0.1750076413154602, -0.0769607275724411, 0.015241645276546478, 0.11105567961931229, -0.1153002455830574, -0.18031591176986694, 0.1302478015422821], [-0.08264376223087311, -0.18072150647640228, -0.08927859365940094, -0.06750902533531189, -0.1781732738018036, -0.055506203323602676, 0.004936136770993471, -0.08246943354606628, -0.08550135791301727, -0.11237836629152298]]]}, {"bias": 0.024533210322260857, "weights": [[[0.1134682223200798, 0.0485718809068203, -0.08261271566152573, 0.12226788699626923, 0.08579421788454056, -0.027368668466806412, -0.09875719994306564, -0.19144997000694275, 0.07818032801151276, -0.17435701191425323], [0.053312309086322784, 0.006287956610321999, -0.152787983417511, -0.0747833400964737, -0.0646752119064331, -0.23634158074855804, -0.02231832593679428, 0.11253481358289719, 0.05758471041917801, -0.04412780702114105], [0.03958369791507721, 0.10572461783885956, -0.15858682990074158, 0.0816548615694046, 0.030628440901637077, 0.37162503600120544, 0.012283684685826302, -0.1950247436761856, 0.08762174099683762, 0.19674813747406006]], [[0.19094349443912506, -0.013256579637527466, -0.17928817868232727, 0.025734076276421547, 0.03627598658204079, -0.2726985216140747, 0.13955649733543396, -0.023821860551834106, 0.10367768257856369, -0.02050163410604], [0.155279278755188, -0.1461721509695053, 0.033286839723587036, -0.07173909991979599, -0.10384178161621094, -0.23374581336975098, -0.1560956835746765, 0.11298758536577225, -0.21873365342617035, -0.011214330792427063], [-0.014273940585553646, -0.06261041015386581, -0.34997984766960144, 0.04825807362794876, -0.08153284341096878, 0.3027864694595337, 0.17066162824630737, 0.0588674396276474, 0.28614696860313416, 0.1943352073431015]], [[0.0074785007163882256, -0.008141063153743744, -0.2809068262577057, 0.006684300024062395, 0.007010349538177252, -0.3570060133934021, -0.10519079864025116, 0.06571989506483078, -0.20409053564071655, -0.08669847995042801], [0.03732524812221527, -0.07412783056497574, 0.03841943293809891, -0.1553809642791748, 0.09354952722787857, -0.06019355729222298, -0.14733119308948517, 0.15924109518527985, -0.068334199488163, 0.0807347223162651], [-0.1113131195306778, 0.2560250759124756, -0.21449007093906403, -0.19406771659851074, -0.15521526336669922, 0.2199893444776535, -0.06935004889965057, -0.07936619967222214, 0.024739038199186325, -0.06397126615047455]]]}, {"bias": -0.04299825802445412, "weights": [[[0.07027561962604523, 0.10415753722190857, 0.08705045282840729, 0.11701526492834091, 0.1280537247657776, -0.020438995212316513, 0.007215744815766811, 0.11897628009319305, 0.09510783851146698, 0.06612776964902878], [-0.05037936568260193, 0.20687870681285858, -0.19585944712162018, 0.11793816834688187, 0.001990347635000944, 0.12866872549057007, 0.0643160492181778, -0.031193282455205917, 0.003131086705252528, -0.06417037546634674], [-0.014949863776564598, 0.16328245401382446, -0.003250998677685857, 0.1312190592288971, 0.18387313187122345, -0.23233458399772644, 0.12795822322368622, 0.1388140469789505, -0.011283847503364086, -0.3304878771305084]], [[0.02988278493285179, 0.07373467087745667, -0.15306013822555542, -0.03623282164335251, -0.11972730606794357, 0.07178795337677002, 0.008464552462100983, 0.14337283372879028, -0.08257811516523361, 0.20189417898654938], [-0.18851573765277863, -0.10615585744380951, -0.1149873360991478, -0.1084684506058693, -0.10415100306272507, 0.0553494393825531, -0.09483363479375839, 0.24058786034584045, -0.005312533583492041, 0.08919736742973328], [-0.034514568746089935, -0.0632852241396904, -0.06254950165748596, -0.04049404338002205, -0.1656719446182251, -0.09092964977025986, -0.17806969583034515, -0.011699500493705273, -0.2499094009399414, 0.0445600263774395]], [[-0.19737926125526428, 0.01796598918735981, 0.20444166660308838, 0.13798116147518158, -0.2814754843711853, -0.0417298786342144, 0.06099965050816536, -0.04530563950538635, -0.1759159415960312, 0.01755579374730587], [0.04518500715494156, -0.1418786197900772, -0.07417231053113937, -0.042849160730838776, -0.22559267282485962, 0.24734044075012207, -0.2440217137336731, -0.01607534848153591, -0.06967765092849731, -0.029244890436530113], [0.010277291759848595, -0.07008937746286392, 0.1648409366607666, 0.012769111432135105, -0.2470708191394806, -0.03363804146647453, -0.19403886795043945, 0.2687903940677643, 0.014023179188370705, -0.02064386010169983]]]}, {"bias": -0.01926342397928238, "weights": [[[0.11103716492652893, -0.006523721851408482, 0.009868437424302101, -0.14158105850219727, 0.02359749563038349, 0.07650143653154373, -0.0036350577138364315, 0.0881933942437172, 0.09895652532577515, -0.03748535364866257], [0.17600518465042114, -0.2063443958759308, 0.1177314966917038, 0.007521606516093016, -0.15167729556560516, 0.13021069765090942, 0.11366569995880127, 0.03483252227306366, 0.02388683147728443, -0.1004650667309761], [0.041347987949848175, -0.11848213523626328, -0.2183157056570053, -0.1066051572561264, -0.2020399272441864, 0.13783392310142517, -0.0913144126534462, 0.16734150052070618, 0.12501955032348633, -0.018944351002573967]], [[-0.06585630774497986, -0.05006321892142296, 0.012685947120189667, 0.04073236137628555, 0.10610532760620117, -0.1941865235567093, 0.1031017005443573, 0.05061560496687889, 0.052557770162820816, 0.03822259232401848], [0.15967543423175812, -0.11226317286491394, 0.10155156999826431, 0.015738895162940025, -0.15792778134346008, -0.13163518905639648, 0.050261370837688446, -0.12500977516174316, 0.0950813964009285, 0.1600046008825302], [0.12793418765068054, -0.18767696619033813, -0.04235217720270157, -0.007161006331443787, 0.13746772706508636, -0.09165698289871216, -0.08078063279390335, -0.09531044960021973, -0.14430278539657593, -0.010949197225272655]], [[0.08602061122655869, -0.0500422902405262, -0.23618453741073608, -0.18283548951148987, 0.10804004967212677, -0.1636420488357544, -0.21477578580379486, -0.013715790584683418, -0.017472892999649048, 0.12452200800180435], [-0.11779262870550156, 0.009510423056781292, -0.17651242017745972, -0.02133958972990513, -0.09953221678733826, -0.19850100576877594, -0.2106294333934784, 0.1984158456325531, -0.14945288002490997, -0.016605187207460403], [0.13944393396377563, 0.10522611439228058, -0.05057098716497421, -0.1927700936794281, -0.18320266902446747, 0.13575001060962677, -0.1437888741493225, 0.05844341218471527, -0.07656296342611313, 0.03499915078282356]]]}, {"bias": -0.10434658825397491, "weights": [[[-0.14366702735424042, -0.1841515302658081, 0.22214485704898834, -0.10760573297739029, 0.12606090307235718, 0.2578813433647156, 0.10973361879587173, 0.10839838534593582, 0.03319217637181282, -0.05335924029350281], [-0.07900401204824448, 0.1493082493543625, -0.1277046799659729, -0.019197601824998856, -0.05862581357359886, -0.20841875672340393, 0.20037254691123962, -0.029581112787127495, -0.00920662097632885, 0.19454695284366608], [-0.08626928180456161, -0.08915238827466965, -0.04580104723572731, 0.03211222216486931, 0.009348314255475998, -0.16574102640151978, 0.2098567932844162, 0.09743934124708176, 0.09102308005094528, -0.10585622489452362]], [[-0.010924682952463627, 0.1738715022802353, 0.16601838171482086, 0.06262502819299698, 0.1030668392777443, -0.0414852574467659, 0.002805775962769985, -0.21017000079154968, 0.1624690145254135, -0.02481009066104889], [-0.12662135064601898, 0.23220176994800568, 0.1827167421579361, -0.011620680801570415, 0.12461834400892258, -0.07164522260427475, 0.21728944778442383, -0.1978328675031662, -0.09374890476465225, -0.036319416016340256], [0.06269022822380066, 0.11817169189453125, -0.07890123128890991, 0.06843174248933792, -0.12184673547744751, -0.2563278079032898, 0.1585429310798645, -0.22600604593753815, -0.019571932032704353, 0.01016748696565628]], [[0.04785173758864403, 0.1759793907403946, 0.015551754273474216, -0.013095109723508358, -0.17114576697349548, 0.011820338666439056, 0.1398995816707611, 0.09183892607688904, 0.21538092195987701, -0.2416616976261139], [-0.091100312769413, 0.16301272809505463, -0.08046235144138336, 0.018949387595057487, 0.12236055731773376, 0.045109521597623825, 0.11402323096990585, 0.06253262609243393, -0.09554702043533325, -0.15800639986991882], [0.17015022039413452, 0.11010340601205826, 0.04737681895494461, 0.11592430621385574, 0.023056263104081154, -0.01302567683160305, -0.1616424322128296, 0.023347612470388412, 0.043114908039569855, -0.020087450742721558]]]}, {"bias": -0.04800565168261528, "weights": [[[0.05189237371087074, 0.05837010219693184, -0.03563476353883743, -0.15500906109809875, -0.2723388969898224, 0.006404512096196413, -0.05638422444462776, 0.11327137798070908, -0.1311865895986557, 0.10691612213850021], [-0.19713696837425232, -0.12102611362934113, -0.0003908436046913266, -0.16094812750816345, -0.21830303966999054, 0.0812339335680008, -0.17740710079669952, -0.0011505380971357226, -0.11905921250581741, 0.17219401895999908], [-0.1084400862455368, -0.19022437930107117, -0.14410723745822906, -0.018723806366324425, 0.011941998265683651, 0.1830088496208191, -0.1354992687702179, 0.005339889787137508, 0.006947692483663559, -0.04570234194397926]], [[-0.05315973237156868, -0.14764216542243958, -0.23049508035182953, 0.03895394876599312, -0.10037736594676971, 0.018187858164310455, 0.0028680777177214622, -0.19753877818584442, -0.1493195742368698, -0.11707284301519394], [0.12861959636211395, -0.06287696212530136, -0.07071761786937714, 0.01363935973495245, 0.04462776333093643, -0.07554749399423599, -0.2222701907157898, 0.16328230500221252, 0.059162188321352005, 0.17683427035808563], [0.046125397086143494, 0.14704056084156036, 0.0022247915621846914, -0.1540866494178772, -0.17265701293945312, -0.023577604442834854, -0.19588947296142578, 0.23837733268737793, -0.041111551225185394, 0.03737036883831024]], [[0.09812624007463455, -0.12778446078300476, 0.13405393064022064, -0.032467544078826904, -0.21836616098880768, 0.08353067189455032, -0.06228761747479439, 0.11866551637649536, 0.10212244838476181, -0.10110486298799515], [-0.06270444393157959, -0.09535948932170868, 0.07840659469366074, -0.017314529046416283, -0.21906964480876923, 0.0934445783495903, -0.09424332529306412, 0.11127407848834991, 0.022603319957852364, -0.021783770993351936], [-0.0809330940246582, -0.1388079822063446, -0.08597737550735474, 0.18003356456756592, 0.11262345314025879, 0.19944049417972565, -0.21346791088581085, 0.07298069447278976, 0.17324919998645782, -0.18676841259002686]]]}, {"bias": -0.03066825307905674, "weights": [[[0.02732073701918125, 0.11151928454637527, -0.0589124858379364, -0.11006361246109009, -0.12031372636556625, 0.26415133476257324, -0.07002493739128113, -0.022440895438194275, 0.08941610902547836, -0.06788958609104156], [-0.06857990473508835, 0.02072816528379917, 0.04174588620662689, -0.09817907959222794, -0.13506892323493958, -0.0466027595102787, 0.1257990449666977, 0.24973788857460022, 0.12580017745494843, 0.017409348860383034], [-0.1251814365386963, -0.12612910568714142, 0.05766229331493378, 0.06325160712003708, -0.14876942336559296, -0.20024043321609497, -0.10761166363954544, 0.14169739186763763, -0.12494757771492004, -0.1659799963235855]], [[0.01241153571754694, 0.021367695182561874, -0.05731745809316635, 0.008178846910595894, -0.06000618264079094, 0.29143252968788147, -0.01205884013324976, 0.17756366729736328, 0.12817871570587158, -0.07923002541065216], [0.14911888539791107, -0.1716456562280655, 0.0997827872633934, 0.12337591499090195, -0.11713670939207077, -0.17016904056072235, 0.07489202171564102, 0.006848097313195467, 0.05180639773607254, -0.1717013567686081], [0.013730894774198532, 0.12717117369174957, -0.1258232146501541, -0.06086692586541176, -0.14835162460803986, -0.27516213059425354, -0.03875037655234337, 0.21689137816429138, 0.09160027652978897, -0.24717900156974792]], [[0.1157989501953125, 0.02274494431912899, 0.16696971654891968, 0.03215809911489487, -0.2163005769252777, 0.2902148962020874, -0.1640228033065796, 0.13659122586250305, 0.17345230281352997, 0.043410155922174454], [0.154595747590065, -0.10592816770076752, 0.05232245475053787, -0.010427499189972878, -0.12357670068740845, 0.035417791455984116, -0.13384167850017548, 0.19228030741214752, 0.12758326530456543, 0.02413319982588291], [-0.0645209550857544, 0.09492915123701096, 0.029163291677832603, -0.11270200461149216, -0.08572421222925186, 0.01852194033563137, -0.1906651109457016, 0.1528104692697525, 0.00867555197328329, -0.17644494771957397]]]}, {"bias": 0.014672348275780678, "weights": [[[-0.17899760603904724, -0.18799179792404175, 0.05791504308581352, -0.19960549473762512, -0.11133326590061188, 0.20735879242420197, 0.07608462125062943, 0.005575347691774368, 0.054355934262275696, -0.03964084014296532], [-0.026728948578238487, -0.07531903684139252, -0.10791052877902985, -0.23614680767059326, 0.04631289839744568, 0.0843166708946228, 0.05878754332661629, 0.10437081754207611, -0.14637669920921326, -0.2787781357765198], [-0.01178637333214283, -0.03229835256934166, -0.14529374241828918, -0.15701186656951904, -0.21748025715351105, -0.009885914623737335, 0.061031486839056015, -0.12113261967897415, -0.011801828630268574, 0.09354247152805328]], [[0.00862445030361414, 0.09637163579463959, -0.0032359506003558636, -0.08624361455440521, -0.0926053449511528, -0.04142175242304802, 0.16627924144268036, 0.04191514849662781, 0.2390589416027069, 0.09656418859958649], [-0.060898829251527786, -0.21674208343029022, -0.020599599927663803, 0.11008792370557785, 0.040207814425230026, -0.0992835983633995, -0.19244101643562317, 0.11844679713249207, 0.07011525332927704, 0.1517457365989685], [-0.01598847657442093, -0.11716987192630768, 0.022897299379110336, 0.05700919032096863, 0.0888177901506424, -0.05157637223601341, -0.20804813504219055, 0.013380921445786953, 0.12630018591880798, 0.05762847885489464]], [[-0.03832947090268135, 0.05833720043301582, 0.019038578495383263, -0.25552135705947876, 0.05187486112117767, 0.10610399395227432, 0.10723412781953812, -0.0016847305232658982, 0.141580268740654, -0.16477613151073456], [-0.07924682646989822, 0.19520679116249084, -0.1642833650112152, 0.028567617759108543, 0.21054606139659882, 0.02677406184375286, -0.012164188548922539, 0.017692100256681442, -0.198449969291687, -0.12503238022327423], [-0.08683936297893524, 0.06016790494322777, -0.15989556908607483, -0.2543777823448181, 0.1671598255634308, 0.12367277592420578, 0.040643587708473206, -0.012749061919748783, -0.20769235491752625, 0.02335905097424984]]]}, {"bias": 0.016464266926050186, "weights": [[[-0.06207388639450073, -0.023451464250683784, 0.05546523258090019, -0.010500233620405197, -0.08517804741859436, -0.29592248797416687, -0.09330519288778305, -0.2281978279352188, -0.3223349452018738, 0.11796238273382187], [-0.16842880845069885, -0.02947097271680832, -0.098921999335289, -0.1522279679775238, -0.08827732503414154, -0.1445755958557129, 0.013360708020627499, -0.1792004108428955, -0.08304060250520706, 0.25983816385269165], [-0.08563336730003357, -0.1223212331533432, -0.05824406072497368, -0.2775234282016754, -0.27604496479034424, -0.0432652086019516, -0.11181393265724182, 0.03957492485642433, -0.15782973170280457, 0.01865708827972412]], [[-0.019178226590156555, -0.09069669246673584, 0.13458707928657532, 0.05122045800089836, -0.056214116513729095, 0.005638631992042065, 0.18261906504631042, -0.03962429612874985, -0.10057531297206879, -0.20558741688728333], [-0.0388994924724102, -0.05606555566191673, 0.10639289766550064, -0.09354585409164429, -0.17119523882865906, -0.1440942883491516, 0.09752653539180756, 0.04979681596159935, -0.07745196670293808, -0.18817587196826935], [0.04618602618575096, -0.2034701108932495, -0.00805656798183918, -0.24735547602176666, -0.2142118662595749, -0.0818701758980751, 0.006098504643887281, -0.11799272149801254, 0.05636119842529297, 0.1538013517856598]], [[0.0574251152575016, 0.20895028114318848, -0.03766995295882225, 0.2860243320465088, 0.196109801530838, 0.02230333909392357, 0.148683100938797, -0.11684904247522354, 0.06110445410013199, 0.05123063549399376], [-0.05471999943256378, -0.23772811889648438, 0.04574326053261757, 0.09793122857809067, 0.2089424580335617, 0.08670257031917572, -0.014694329351186752, 0.03712337464094162, -0.06176301836967468, -0.16128967702388763], [-0.18407341837882996, -0.08958473056554794, -0.07637529820203781, 0.1388128399848938, 0.012171369045972824, -0.04968641698360443, -0.09905436635017395, -0.028287231922149658, -0.012506949715316296, -0.20225365459918976]]]}]}, {"name": "conv_2_1", "input_shape": [null, 62, 62, 10], "output_shape": [null, 60, 60, 10], "num_neurons": 10, "weights": [{"bias": -0.02381056360900402, "weights": [[[0.11400170624256134, -0.06840202957391739, 0.0159408338367939, 0.04969743639230728, 0.04126603901386261, -0.22751371562480927, 0.1040421649813652, 0.07305821031332016, 0.03247784823179245, 0.03515154495835304], [0.1429496854543686, -0.10308770835399628, -0.20313267409801483, -0.004611321724951267, -0.0553455576300621, 0.05744534730911255, -0.04502033069729805, 0.05167630687355995, 0.14171919226646423, 0.15454691648483276], [0.010078450664877892, -0.025995681062340736, -0.04989122599363327, 0.0639277771115303, -0.003263358725234866, 0.0764947235584259, 0.024992920458316803, 0.033446054905653, 0.04589031636714935, -0.005632504355162382]], [[0.22092165052890778, 0.08587906509637833, 0.07170169800519943, -0.1057070642709732, -0.08371588587760925, -0.03717019408941269, 0.15933288633823395, -0.11758109927177429, -0.12909278273582458, -0.07652193307876587], [-0.16898438334465027, -0.18095862865447998, -0.22989267110824585, -0.06562072783708572, -0.07674141973257065, 0.08648531138896942, -0.11835343390703201, 0.04454147815704346, 0.21619629859924316, 0.009950075298547745], [-0.16748270392417908, -0.1340116262435913, -0.1605629026889801, -0.07052511721849442, 0.15359704196453094, 0.003330754581838846, 0.049065861850976944, 0.11603830009698868, -0.09384675323963165, -0.04439632222056389]], [[0.016457324847579002, 0.09636752307415009, 0.14622104167938232, 0.04590355604887009, 0.1571352332830429, 0.14581717550754547, -0.06007116660475731, 0.0007845582440495491, 0.22224515676498413, -0.016030024737119675], [0.08699782192707062, 0.1300380676984787, -0.06421265006065369, 0.16420039534568787, 0.1104758009314537, -0.1491936296224594, 0.0848613828420639, -0.12702764570713043, 0.12382287532091141, 0.2083205282688141], [0.04848670959472656, 0.06802012771368027, -0.17847177386283875, -0.07933484017848969, -0.06129682809114456, -0.22258880734443665, -0.009312526322901249, 0.019117489457130432, -0.20219986140727997, 0.006275853142142296]]]}, {"bias": -0.0028978411573916674, "weights": [[[-0.0824647918343544, -0.020696967840194702, 0.206418976187706, 0.21851776540279388, 0.1174122542142868, -0.08886091411113739, -0.14229130744934082, -0.15995633602142334, -0.10763595998287201, -0.03211106359958649], [-0.13792458176612854, 0.10770856589078903, 0.015109811909496784, 0.24616491794586182, 0.08765047043561935, -0.06968915462493896, -0.12516410648822784, 0.1300385594367981, -0.1348305344581604, -0.05021577700972557], [0.05318159610033035, -0.11119531095027924, 0.15346017479896545, 0.08616100251674652, 0.0376301035284996, 0.1498914211988449, -0.07881041616201401, -0.08810953050851822, 0.028018170967698097, -0.005996702704578638]], [[-0.11046403646469116, -0.0044967783614993095, 0.14547759294509888, 0.03866605833172798, -0.19468624889850616, -0.1500336080789566, 0.021684864535927773, 0.005507876630872488, -0.22178968787193298, -0.04287315160036087], [0.1540113389492035, -0.2162121832370758, 0.0315246619284153, 0.06376627087593079, -0.23115389049053192, -0.166886106133461, -0.11055192351341248, 0.12742680311203003, -0.021770570427179337, -0.0506766252219677], [0.13812829554080963, -0.07108192145824432, 0.14775867760181427, 0.21171724796295166, 0.10756197571754456, 0.06134580820798874, -0.1854599267244339, -0.13250328600406647, -0.028024468570947647, -0.19835390150547028]], [[-0.03736964985728264, -0.18724468350410461, 0.08623645454645157, -0.10401694476604462, 0.06478714197874069, -0.04184431955218315, -0.17465195059776306, -0.06791610270738602, -0.2050260305404663, 0.01319259312003851], [0.21938897669315338, -0.12788760662078857, 0.02941303141415119, 0.1344841867685318, -0.1031138226389885, 0.1359349489212036, -0.04416443035006523, 0.17878355085849762, -0.1261342614889145, 0.0990695059299469], [-0.12557528913021088, 0.011722453869879246, 0.07857730239629745, -0.15112142264842987, -0.03959176316857338, 0.12440602481365204, -0.06522058695554733, 0.018912535160779953, 0.13332076370716095, 0.1231934130191803]]]}, {"bias": 0.04638078808784485, "weights": [[[-0.1144595667719841, -0.05956749990582466, -0.26989662647247314, -0.12057656049728394, -0.10068044066429138, -0.11822439730167389, -0.03827264904975891, -0.13433822989463806, -0.057813867926597595, 0.17906799912452698], [-0.07744386792182922, -0.06605613976716995, -0.03231626749038696, 0.18572957813739777, 0.06766297668218613, -0.10983061045408249, 0.020785193890333176, -0.25612980127334595, -0.21149605512619019, 0.13297443091869354], [-0.06296466290950775, -0.06276775151491165, 0.04201138764619827, 0.044777680188417435, 0.02089439332485199, -0.19688157737255096, 0.01803700625896454, -0.06551199406385422, -0.0435527004301548, 0.08992540091276169]], [[0.05183211341500282, 0.022346200421452522, -0.1662425547838211, 0.20538052916526794, 0.13437670469284058, 0.012083186767995358, -0.017835527658462524, 0.015079732052981853, -0.16011078655719757, 0.049429066479206085], [0.19067174196243286, 0.06372556835412979, -0.21597948670387268, 0.27658072113990784, 0.1448313593864441, -0.040932007133960724, -0.228650763630867, 0.09695462137460709, -0.010074032470583916, 0.22133080661296844], [0.14366231858730316, -0.14485681056976318, 0.03949923813343048, 0.14508791267871857, -0.03254829719662666, -0.004518812522292137, -0.1418817788362503, 0.07179418206214905, -0.020766446366906166, 0.2216227948665619]], [[-0.10076200217008591, -0.15361648797988892, -0.2781333029270172, 0.18887273967266083, -0.019825376570224762, 0.15299765765666962, -0.007068418897688389, 0.02329188585281372, -0.026018137112259865, -0.11379271000623703], [0.10858809947967529, -0.16261042654514313, -0.021049682050943375, 0.01842847652733326, 0.17371554672718048, 0.10650364309549332, -0.1198376715183258, 0.12619587779045105, -0.11327091604471207, 0.08689851313829422], [0.037909671664237976, 0.052443817257881165, -0.22342638671398163, 0.2643638551235199, 0.010982614010572433, 0.04279722273349762, -0.09156172722578049, -0.057122696191072464, 0.08166550099849701, 0.23315104842185974]]]}, {"bias": 0.05283558368682861, "weights": [[[-0.3629150688648224, 0.09196159243583679, -0.22801274061203003, -0.04331006854772568, -0.0901523157954216, 0.03754253312945366, -0.034648507833480835, -0.21391069889068604, -0.10888130217790604, -0.1051793321967125], [-0.2684207260608673, -0.25084441900253296, -0.035336509346961975, -0.012143832631409168, 0.07277822494506836, -0.026794573292136192, 0.03392885625362396, 0.034626107662916183, 0.0049012210220098495, -0.007768476847559214], [0.11179495602846146, -0.3561055362224579, 0.06895998120307922, -0.4135676622390747, -0.02172069624066353, -0.17612750828266144, -0.1221131980419159, 0.11832131445407867, -0.008829960599541664, -0.05547873675823212]], [[-0.009356834925711155, -0.019262101501226425, -0.24853980541229248, 0.08798367530107498, -0.1098029762506485, -0.039242714643478394, -0.07726334780454636, -0.13127511739730835, -0.2277374118566513, 0.37556979060173035], [-0.006735407281666994, -0.09849446266889572, -0.4027736783027649, -0.012069053016602993, 0.1895235925912857, -0.14972807466983795, 0.02048242650926113, 0.07976797223091125, -0.09224336594343185, -0.03241562843322754], [0.056504420936107635, -0.19864967465400696, -0.10000646859407425, 0.18925490975379944, -0.15316298604011536, 0.16346034407615662, -0.07725633680820465, 0.13930808007717133, -0.08170720934867859, -0.16978192329406738]], [[0.2374725639820099, -0.10884033888578415, -0.18544083833694458, -0.01980460062623024, -0.024921506643295288, 0.09640192985534668, 0.0834447517991066, -0.16006799042224884, 0.07417991012334824, 0.3860345184803009], [0.2513759434223175, 0.03266095370054245, -0.2052711397409439, 0.13481749594211578, -0.12913525104522705, 0.09091267734766006, -0.14132487773895264, 0.029150640591979027, -0.056271202862262726, 0.13259878754615784], [-0.019294409081339836, 0.16838380694389343, -0.18318520486354828, 0.09799805283546448, 0.07516071200370789, 0.1964070051908493, 0.11674875020980835, 0.010320598259568214, -0.12333689630031586, -0.02948392927646637]]]}, {"bias": 0.014964437112212181, "weights": [[[-0.11791158467531204, 0.03263087198138237, -0.17975731194019318, 0.04037044569849968, 0.09942403435707092, -0.11428377032279968, -0.11131292581558228, -0.12368741631507874, 0.0031831488013267517, 0.08689471334218979], [0.08783432096242905, -0.04236274212598801, -0.011824042536318302, 0.07754943519830704, -0.02579001896083355, -0.12035192549228668, -0.01465681754052639, -0.09028424322605133, 0.07409946620464325, 0.23922008275985718], [-0.11892472207546234, 0.13088467717170715, -0.16051772236824036, -0.17070408165454865, 0.19354647397994995, -0.1735915094614029, -0.04448283463716507, -0.1755003035068512, 0.0036643764469772577, -0.29463252425193787]], [[0.03209581598639488, 0.10713789612054825, 0.016809644177556038, -0.2222638577222824, -0.07244161516427994, 0.04006539657711983, 0.06438861787319183, -0.06303586065769196, -0.017308443784713745, -0.1282297819852829], [0.024709830060601234, 0.09189563244581223, -0.32747259736061096, 0.019165821373462677, 0.0496242381632328, -0.007514124736189842, 0.15655358135700226, 0.01551989559084177, -0.055410705506801605, -0.018566053360700607], [-0.12870793044567108, 0.08830127120018005, -0.10819926112890244, 0.12242180854082108, -0.10991048067808151, 0.11121197044849396, -0.11834753304719925, -0.17630800604820251, 0.06985263526439667, 0.15847094357013702]], [[0.1012212410569191, -0.0815294161438942, -0.09941186755895615, -0.11782955378293991, 0.1518232822418213, 0.15326280891895294, 0.07020393013954163, -0.14481817185878754, 0.0688454806804657, 0.007696638815104961], [0.13064785301685333, 0.09465714544057846, -0.3600444495677948, -0.1873466670513153, -0.058263085782527924, -0.0009889566572383046, -0.017604853957891464, 0.12770502269268036, -0.06494123488664627, -0.05192410945892334], [-0.04732318967580795, -0.006554150953888893, -0.344833105802536, -0.23847180604934692, 0.12503169476985931, 0.07055161148309708, 0.10496530681848526, 0.16031228005886078, -0.11087396740913391, -0.026751341298222542]]]}, {"bias": -0.070061594247818, "weights": [[[0.1371479034423828, -0.09085724502801895, -0.12176623195409775, 0.01870018243789673, -0.000891116913408041, -0.1978529542684555, -0.12404107302427292, 0.1208663135766983, 0.02273077331483364, -0.1472906768321991], [0.023608749732375145, 0.15272758901119232, -0.09139468520879745, 0.058360740542411804, 0.13961093127727509, -0.048055876046419144, 0.08946835249662399, 0.12354440242052078, 0.06760465353727341, -0.16369302570819855], [0.12015042454004288, -0.23442794382572174, -0.07157983630895615, 0.0886329635977745, -0.035032328218221664, -0.0369931198656559, 0.1540687382221222, -0.05640610679984093, -0.09434060752391815, 0.005808679852634668]], [[0.07302650809288025, -0.12445059418678284, 0.0200137160718441, -0.003832017770037055, -0.13445477187633514, 0.08758000284433365, 0.15977618098258972, 0.1683242917060852, 0.13587969541549683, -0.019399279728531837], [0.24724435806274414, -0.172755166888237, -0.0747566893696785, 0.07432865351438522, 0.011870760470628738, -0.1273229569196701, -0.07272951304912567, -0.02409213036298752, 0.14767201244831085, 0.27328598499298096], [-0.09108133614063263, 0.13239526748657227, -0.18155086040496826, -0.03572826460003853, -0.10427841544151306, 0.07810256630182266, 0.05559041351079941, -0.08869490027427673, 0.10539323836565018, 0.08368312567472458]], [[0.04253389686346054, 0.1351928412914276, -0.17624852061271667, 0.12397583574056625, 0.11186940222978592, 0.17553935945034027, -0.10644526034593582, 0.05382833257317543, -0.030944665893912315, -0.10623688995838165], [-0.17254795134067535, 0.016313185915350914, 0.06981752067804337, -0.0019539091736078262, -0.09783152490854263, -0.06060611084103584, 0.11011851578950882, -0.012789641506969929, -0.11788525432348251, -0.041975803673267365], [-0.19790741801261902, 0.12922732532024384, 0.03979945555329323, 0.28618940711021423, -0.09706292301416397, 0.011053144000470638, -0.02033940516412258, -0.1745925098657608, -0.20126311480998993, 0.0337335467338562]]]}, {"bias": 0.015086010098457336, "weights": [[[-0.16171661019325256, 0.043710749596357346, 0.16273541748523712, 0.05298870429396629, -0.01441368367522955, 0.08760331571102142, -0.10932427644729614, 0.0023113705683499575, -0.08586370944976807, -0.11630657315254211], [-0.17929595708847046, 0.13358965516090393, 0.12870098650455475, -0.017451155930757523, 0.038147058337926865, -0.14660322666168213, 0.04802538827061653, 0.17937330901622772, -0.17755217850208282, 0.12231083959341049], [-0.04128481447696686, 0.008229476399719715, -0.06697801500558853, 0.14167168736457825, 0.07961946725845337, -0.11889450997114182, -0.07587549835443497, 0.10132167488336563, 0.03724118694663048, 0.2783676087856293]], [[0.13749389350414276, 0.22926270961761475, -0.07693561911582947, -0.08742537349462509, 0.02718491479754448, -0.18865224719047546, -0.09635182470083237, 0.10376407206058502, -0.006307315081357956, -0.1285914182662964], [-0.18985384702682495, 0.1738273799419403, 0.1932365745306015, 0.08303430676460266, 0.00671515753492713, -0.2033570408821106, -0.015326976776123047, 0.028129184618592262, -0.046810563653707504, -0.09409303963184357], [-0.0034273150376975536, -0.03238137811422348, 0.0970243439078331, -0.03368525207042694, 0.10155556350946426, -0.03333653509616852, -0.02133665233850479, -0.04461102560162544, -0.05610975623130798, -0.0144916120916605]], [[0.010555277578532696, 0.14471596479415894, 0.04455598443746567, -0.07647829502820969, 0.14357790350914001, -0.004056947305798531, -0.08194194734096527, 0.10639218240976334, 0.14339545369148254, -0.06629917770624161], [0.10037795454263687, 0.0029972875490784645, -0.08779565244913101, 0.1479252129793167, -0.003648309037089348, -0.07679964601993561, 0.15389643609523773, -0.08003196120262146, -0.07769051939249039, -0.04186150059103966], [-0.034554868936538696, 0.09365008771419525, 0.12750646471977234, -0.10682356357574463, 0.039627209305763245, 0.08960439264774323, 0.1027299240231514, 0.05761265009641647, -0.1285884976387024, -0.009247325360774994]]]}, {"bias": 0.003820905927568674, "weights": [[[-0.11031512916088104, -0.06726587563753128, -0.027719102799892426, -0.15003655850887299, 0.09283279627561569, -0.2562377452850342, 0.017587319016456604, -0.05187153443694115, -0.11037099361419678, 0.1311453878879547], [-0.0011437843786552548, -0.10189898312091827, 0.038131650537252426, -0.21809865534305573, 0.07794366031885147, -0.020163819193840027, -0.03590085729956627, -0.16729529201984406, 0.1332607865333557, -0.11657660454511642], [0.2605639398097992, -0.25125783681869507, 0.1289941519498825, -0.19034257531166077, -0.008012155070900917, -0.11634515225887299, 0.09221766889095306, -0.11306045949459076, 0.16628772020339966, 0.08534283936023712]], [[-0.11288367956876755, -0.09702602028846741, 0.021131008863449097, -0.24787120521068573, -0.19875222444534302, -0.14370977878570557, 0.0010986622655764222, -0.097622349858284, 0.20952565968036652, -0.026369895786046982], [0.09827286005020142, -0.2597217261791229, -0.05961379036307335, -0.08150959014892578, 0.15233023464679718, -0.182449609041214, 0.024658221751451492, -0.21851147711277008, 0.16977573931217194, 0.11434314399957657], [0.008948109112679958, -0.27945274114608765, -0.08363953977823257, 0.16224384307861328, -0.23772896826267242, 0.048094071447849274, -0.1438005119562149, -0.176687553524971, -0.03052644245326519, -0.13659749925136566]], [[-0.021490829065442085, -0.17624430358409882, 0.04668228700757027, -0.06602907925844193, -0.09753884375095367, 0.05275408923625946, 0.022982919588685036, -0.2534174621105194, 0.034184250980615616, -0.06712229549884796], [-0.10195835679769516, 0.10909637808799744, 0.019839761778712273, 0.010959516279399395, 0.025023428723216057, 0.1421620398759842, 0.005106749944388866, -0.08506809920072556, 0.20623144507408142, -0.003672647289931774], [-0.04767138510942459, -0.07137855887413025, 0.12649069726467133, 0.027866305783391, 0.02616119012236595, 0.17076393961906433, -0.12085041403770447, -0.004866699688136578, 0.1587986797094345, 0.02344108559191227]]]}, {"bias": -0.03321930766105652, "weights": [[[-0.08368300646543503, -0.23674502968788147, 0.1712493747472763, -0.3204762935638428, 0.09506192803382874, 0.11941778659820557, 0.17703528702259064, 0.05931912735104561, 0.010348960757255554, 0.1031816303730011], [-0.07982803136110306, -0.2903795540332794, -0.12239089608192444, -0.08617398142814636, -0.0280904658138752, -0.11507498472929001, 0.21642127633094788, 0.05948375537991524, 0.21117354929447174, 0.225438192486763], [-0.019050875678658485, -0.19923245906829834, -0.007875056937336922, -0.07667262852191925, -0.018750103190541267, -0.044527266174554825, -0.14880666136741638, 0.0660960003733635, 0.15675568580627441, 0.19672241806983948]], [[-0.11068631708621979, -0.08991065621376038, -0.06692782789468765, -0.19928157329559326, 0.12174074351787567, 0.04855756834149361, 0.15821348130702972, -0.0422234870493412, -0.004239949863404036, -0.16528668999671936], [0.013326042331755161, -0.0557391457259655, 0.14846128225326538, -0.2210695594549179, 0.11009848862886429, -0.06536655128002167, 0.01653711497783661, -0.08199755102396011, 0.1257859766483307, -0.11753784865140915], [0.03818278759717941, -0.3280591070652008, -0.0005702883936464787, -0.08516329526901245, 0.10166120529174805, -0.021634206175804138, 0.04982658848166466, 0.018755707889795303, 0.13681717216968536, 0.31173351407051086]], [[-0.014675244688987732, -0.13395075500011444, -0.05343335121870041, 0.27483871579170227, -0.02549680322408676, -0.0430724211037159, -0.17878684401512146, -0.05728786811232567, 0.017748959362506866, -0.3157404959201813], [0.07321189343929291, 0.00536998501047492, -0.10153181105852127, 0.24805253744125366, 0.15471896529197693, 0.21519146859645844, 0.1276937574148178, -0.1820913553237915, 0.17781227827072144, -0.3152363896369934], [0.12982122600078583, -0.09901975095272064, 0.0412997268140316, 0.14413602650165558, 0.005378980189561844, 0.056730400770902634, 0.11086603999137878, 0.01804216206073761, 0.07596057653427124, 0.059490542858839035]]]}, {"bias": 0.008687853813171387, "weights": [[[-0.22806328535079956, -0.12665647268295288, -0.27898266911506653, -0.01137386541813612, 0.07623441517353058, 0.130055770277977, -0.02508908323943615, -0.019372688606381416, -0.0009270897135138512, -0.2048991620540619], [-0.18925507366657257, -0.1497546136379242, -0.3521724343299866, 0.12837189435958862, 0.02081965282559395, 0.2136136293411255, -0.17152118682861328, 0.08943762630224228, 0.12552396953105927, -0.005836453754454851], [-0.08642850071191788, 0.00031973610748536885, 0.12800976634025574, 0.16950532793998718, 0.07170262187719345, -0.12672947347164154, -0.2712397575378418, -0.12857533991336823, -0.1723041981458664, 0.007590032648295164]], [[-0.06543859839439392, 0.01404658704996109, -0.11439245194196701, 0.07577668130397797, 0.059374675154685974, 0.019930774345993996, -0.19900746643543243, 0.03264917805790901, -0.21623101830482483, 0.02398335374891758], [-0.1077645793557167, -0.043916407972574234, -0.17520010471343994, 0.0737142488360405, -0.1389773041009903, -0.1330169141292572, -0.047577496618032455, -0.05171684920787811, 0.10368519276380539, -0.34403935074806213], [0.25410059094429016, 0.1622793972492218, -0.08867885917425156, -0.17665636539459229, 0.004247636999934912, -0.12525811791419983, -0.20238180458545685, -0.09582825750112534, -0.04662906751036644, -0.30220767855644226]], [[-0.049810294061899185, -0.0713767558336258, -0.16723543405532837, 0.03581111133098602, -0.014874923974275589, -0.05133975297212601, -0.12868359684944153, -0.01608276180922985, -0.1847291886806488, -0.36348313093185425], [0.07618559896945953, 0.16605216264724731, -0.1392020881175995, -0.06618904322385788, -0.1857169270515442, -0.03815624862909317, 0.024700714275240898, -0.10442853718996048, 0.017339933663606644, -0.1272505521774292], [0.11631689965724945, 0.08950816094875336, 0.24990911781787872, -0.28635114431381226, -0.17318041622638702, -0.048300083726644516, 0.09656796604394913, -0.036804407835006714, 0.12543407082557678, -0.3695704936981201]]]}]}, {"name": "conv_2_2", "input_shape": [null, 60, 60, 10], "output_shape": [null, 58, 58, 10], "num_neurons": 10, "weights": [{"bias": -0.007244342938065529, "weights": [[[-0.034468814730644226, -0.09546413272619247, -0.0941891074180603, 0.08248830586671829, -0.055919427424669266, -0.22252950072288513, 0.1469491422176361, -0.16318272054195404, 0.07945824414491653, -0.07131190598011017], [-0.1706160455942154, 0.027600526809692383, 0.017440853640437126, 0.20448662340641022, -0.1000727117061615, -0.04050147905945778, -0.1738879382610321, 0.118253692984581, 0.17824584245681763, -0.06410674005746841], [0.0052237254567444324, -0.2468636929988861, -0.1775752454996109, 0.16925351321697235, 0.06842280924320221, -0.0562492199242115, 0.04215835779905319, 0.11709454655647278, 0.06553956866264343, 0.07494473457336426]], [[0.0037361339200288057, 0.1004277840256691, 0.06132122874259949, 0.10729314386844635, -0.12441083043813705, -0.2300289273262024, 0.00012438598787412047, -0.013788905926048756, -0.043301232159137726, -0.2791142463684082], [0.030249325558543205, 0.006772662978619337, -0.23244129121303558, -0.04031293839216232, 0.0998840257525444, -0.0008313822909258306, -0.045924700796604156, 0.11069537699222565, -0.15584920346736908, -0.06830303370952606], [0.1954505890607834, -0.37439975142478943, -0.19580252468585968, -0.2810111343860626, 0.07794331759214401, -0.30833160877227783, -0.22349406778812408, -0.12094678729772568, -0.0152433505281806, -0.06559345126152039]], [[0.10515009611845016, -0.15960834920406342, 0.1635361909866333, -0.036195721477270126, 0.06442998349666595, 0.16006413102149963, 0.12012729793787003, 0.15986737608909607, 0.11891614645719528, -0.06762230396270752], [0.0752110704779625, -0.44404512643814087, -0.08562390506267548, -0.191913902759552, -0.03698289021849632, 0.20412689447402954, -0.02486049197614193, -0.04397997260093689, -0.09563402086496353, 0.04648113623261452], [-0.25481486320495605, -0.38938289880752563, 0.17703434824943542, -0.09760785847902298, -0.0631544217467308, -0.06262079626321793, 0.09166339039802551, 0.22456631064414978, -0.06593247503042221, 0.0248807892203331]]]}, {"bias": 0.00782274454832077, "weights": [[[-0.03840263560414314, -0.050874900072813034, -0.12226779013872147, -0.025430046021938324, -0.07292129099369049, -0.2302819788455963, 0.06571153551340103, 0.1304187774658203, -0.034757696092128754, 0.023741740733385086], [-0.031308792531490326, -0.2254006713628769, -0.2315639853477478, -0.14654214680194855, 0.15077166259288788, -0.03151106834411621, -0.15440531075000763, -0.04968051239848137, -0.16487926244735718, -0.14744602143764496], [0.0515994168817997, -0.09147042781114578, -0.2595162093639374, -0.1580185890197754, 0.10106631368398666, -0.10098160058259964, -0.08248353004455566, 0.15312129259109497, 0.049964938312768936, -0.09630998969078064]], [[-0.00019717757822945714, -0.14574767649173737, -0.02398950234055519, -0.23576463758945465, -0.18886205554008484, -0.023340890184044838, -0.2213703840970993, -0.1777891218662262, -0.04364588111639023, -0.31911659240722656], [0.029978962615132332, -0.19167368113994598, -0.04522755742073059, 0.1623217910528183, -0.1419687718153, -0.07844776660203934, 0.1588573008775711, -0.017004506662487984, -0.14777269959449768, -0.1579972356557846], [0.038103342056274414, -0.06437435746192932, -0.13240425288677216, 0.0650879442691803, 0.01878412254154682, -0.11878089606761932, -0.20973455905914307, 0.20132505893707275, 0.030725624412298203, -0.057596445083618164]], [[-0.0701446682214737, -0.0551445409655571, -0.08499561250209808, 0.1393236219882965, -0.11553504317998886, -0.04780523478984833, 0.15605048835277557, -0.2165411412715912, 0.1273181438446045, -0.019942114129662514], [-0.16662059724330902, 0.07369381934404373, 0.06502437591552734, -0.1003272607922554, -0.015000377781689167, -0.07942851632833481, -0.10058296471834183, -0.09015674889087677, 0.19913814961910248, 0.06311888247728348], [0.0711309164762497, -0.10381792485713959, -0.003418280743062496, 0.21538330614566803, 0.020328041166067123, 0.03470154106616974, -0.04888923838734627, 0.11141949146986008, 0.08732973039150238, -0.20751447975635529]]]}, {"bias": -0.01630593277513981, "weights": [[[-0.14706578850746155, -0.2095005363225937, 0.06723897904157639, -0.03717654570937157, 0.09762115776538849, -0.05608426034450531, 0.061051417142152786, -0.12149662524461746, -0.06800732016563416, -0.05891215801239014], [-0.039247605949640274, -0.15552137792110443, -0.18282756209373474, 0.0073121339082717896, -0.1360943466424942, -0.160239577293396, -0.10162125527858734, 0.005364920943975449, -0.21453282237052917, -0.0381486751139164], [-0.16210941970348358, 0.07083497941493988, -0.30557987093925476, -0.14650960266590118, -0.3325622081756592, -0.1005176305770874, -0.012972964905202389, 0.034092146903276443, -0.3229399621486664, 0.021441087126731873]], [[-0.23274992406368256, -0.14860093593597412, 0.1951221078634262, 0.12768341600894928, 0.25903213024139404, 0.029249487444758415, 0.08149994909763336, 0.1148497685790062, 0.25726279616355896, 0.027843253687024117], [-0.1040014773607254, -0.03457851707935333, 0.022256450727581978, -0.11533857136964798, 0.2286372035741806, -0.12501880526542664, -0.016611209139227867, -0.074290432035923, -0.21204118430614471, -0.24138973653316498], [-0.105585016310215, 0.03644305095076561, 0.05929737165570259, 0.019321562722325325, -0.03718256950378418, -0.058565787971019745, -0.07854468375444412, -0.011918247677385807, -0.1320400983095169, -0.04963245615363121]], [[-0.32250118255615234, -0.28016170859336853, 0.10434114187955856, 0.18151740729808807, 0.001396691775880754, -0.12008563429117203, -0.029174644500017166, -0.3012791872024536, 0.26645204424858093, -0.043898582458496094], [-0.12598420679569244, -0.046583838760852814, 0.12492556124925613, -0.11533752828836441, 0.2200070470571518, -0.31184613704681396, -0.030990740284323692, -0.15080063045024872, 0.30586686730384827, 0.0522223636507988], [-0.16883501410484314, -0.09832096099853516, -0.03253433480858803, 0.06960353255271912, -0.08916741609573364, -0.026469290256500244, -0.018405688926577568, 0.14943017065525055, -0.05273454636335373, -0.14901433885097504]]]}, {"bias": 0.010100537911057472, "weights": [[[-0.12225445359945297, 0.011629210785031319, -0.0010322517482563853, -0.19486509263515472, -0.03200116008520126, -0.1433708369731903, -0.10076817870140076, 0.12386328727006912, 0.19562526047229767, 0.07476817071437836], [-0.2973044216632843, -0.048661135137081146, -0.11575792729854584, -0.018265245482325554, 0.0850164070725441, -0.1736529916524887, 0.05455512925982475, -0.087792307138443, 0.16314664483070374, 0.003373140934854746], [-0.015689551830291748, -0.12801972031593323, -0.16558748483657837, 0.1805594116449356, -0.0020068527664989233, -0.0010702593717724085, 0.136363223195076, -0.053322553634643555, 0.1893312931060791, 0.2577228546142578]], [[-0.050510577857494354, 0.13098259270191193, -0.11853879690170288, -0.1780010610818863, -0.20121589303016663, -0.011156301945447922, -8.381988300243393e-05, 0.12350539118051529, -0.15024308860301971, 0.04054951295256615], [-0.2550507187843323, 0.062371134757995605, -0.07941558957099915, -0.2537150979042053, 0.18624547123908997, -0.16778893768787384, 0.11498644948005676, 0.030671315267682076, -0.061696816235780716, -0.10844984650611877], [-0.1352163702249527, -0.13155841827392578, 0.11148684471845627, -0.1461586356163025, -0.07321008294820786, 0.02724938467144966, 0.029705217108130455, 0.022978438064455986, -0.14949238300323486, 0.007868297398090363]], [[-0.10678988695144653, 0.1060171127319336, -0.010327287018299103, -0.2213170975446701, -0.022449318319559097, -0.24279820919036865, 0.15234166383743286, 0.10682971030473709, -0.08828826248645782, -0.16264881193637848], [-0.15966130793094635, 0.058192476630210876, 0.09147901833057404, -0.26247096061706543, -0.012522988952696323, -0.090430349111557, 0.11022550612688065, 0.12147439271211624, 0.16369746625423431, -0.14424113929271698], [-0.0901084616780281, -0.29155248403549194, -0.08770974725484848, 0.003870443208143115, 0.09647080302238464, 0.024208011105656624, 0.057288192212581635, 0.1518932729959488, 0.023504456505179405, 0.21756771206855774]]]}, {"bias": 0.043470703065395355, "weights": [[[0.06951893121004105, -0.08651294559240341, -0.2134961634874344, 0.07273928821086884, -0.04947654902935028, -0.060669127851724625, -0.06624158471822739, -0.264607310295105, -0.1615571230649948, 0.054988015443086624], [-0.10106455534696579, -0.1644570678472519, 0.0006677047931589186, -0.20543165504932404, 0.08185815066099167, 0.00744929863139987, 0.06465908139944077, -0.14590595662593842, -0.16280172765254974, -0.15348169207572937], [-0.04071052744984627, 0.031109662726521492, 0.10261254757642746, -0.1303836852312088, 0.10042023658752441, 0.17516036331653595, 0.07273820042610168, -0.19891522824764252, 0.02285722643136978, 0.1412508636713028]], [[0.07795238494873047, 0.1453925520181656, -0.09919057041406631, -0.019236350432038307, 0.029437392950057983, -0.19132529199123383, 0.06821323931217194, -0.09917859733104706, -0.18245144188404083, 0.18697452545166016], [-0.06456482410430908, 0.03443719446659088, -0.15695099532604218, 0.042929988354444504, -0.21493734419345856, -0.20741692185401917, 0.06684655696153641, -0.16930128633975983, -0.13854581117630005, -0.00018009862105827779], [-0.003247680142521858, 0.03733481839299202, 0.01586824096739292, 0.0819055512547493, 0.04157720133662224, -0.1877017617225647, 0.16120392084121704, -0.1395977884531021, -0.21888312697410583, 0.1401730477809906]], [[0.010879600420594215, 0.18209956586360931, 0.18136021494865417, -0.1372585892677307, 0.05091619864106178, -0.12205047905445099, 0.038431569933891296, 0.13623811304569244, 0.022854579612612724, 0.10876449197530746], [0.024049632251262665, -0.10317527502775192, 0.15289735794067383, -0.15538577735424042, -0.0789746418595314, 0.13469314575195312, 0.06481287628412247, 0.13675636053085327, -0.01938531920313835, -0.03104613721370697], [0.021355198696255684, -0.01126843597739935, 0.18658944964408875, 0.0027221122290939093, -0.01609676517546177, -0.1467612236738205, -0.02243081107735634, -0.06193085387349129, -0.03782383352518082, 0.12704181671142578]]]}, {"bias": 0.025143802165985107, "weights": [[[-0.11419368535280228, -0.24970072507858276, -0.009322769939899445, 0.1507485806941986, 0.11913467198610306, 0.048340510576963425, 0.07403974235057831, 0.13437116146087646, 0.10287655144929886, 0.18182650208473206], [-0.1594667136669159, 0.07845384627580643, -0.04707448184490204, 0.08957084268331528, -0.04026022553443909, -0.08069322258234024, 0.15820680558681488, 0.08940140902996063, 0.08793092519044876, 0.11888749897480011], [0.04448426514863968, -0.16716068983078003, 0.11875046789646149, -0.06541790813207626, 0.03872084990143776, -0.11903073638677597, 0.20631863176822662, -0.011850238777697086, -0.08311256766319275, 0.03254258260130882]], [[-0.12230993062257767, -0.3042425811290741, -0.22484681010246277, 0.08542750775814056, -0.1096968874335289, 0.06259702146053314, 0.2024896740913391, -0.05538565665483475, -0.16988451778888702, -0.055693142116069794], [-0.06790068000555038, -0.2840000092983246, 0.05207023397088051, -0.10482276976108551, 0.13977286219596863, -0.201976478099823, 0.19935868680477142, -0.004833818878978491, -0.0006153305293992162, -0.13767118752002716], [-0.08554048091173172, -0.10697392374277115, -0.005500596947968006, 0.10346480458974838, 0.13123412430286407, 0.10162544995546341, -0.05868535488843918, -0.1460009515285492, -0.06999653577804565, -0.2810975909233093]], [[0.08444659411907196, 0.02396256849169731, 0.026029687374830246, 0.17648138105869293, 0.11446277797222137, -0.12562525272369385, 0.12977392971515656, 0.06483381241559982, 0.13334015011787415, -0.12079647928476334], [0.028066536411643028, -0.04825674742460251, -0.051564913243055344, -0.030951252207159996, -0.17740347981452942, -0.23738199472427368, 0.1399003565311432, -0.1203824058175087, 0.04734310507774353, -0.1933295726776123], [0.006319614127278328, -0.1702890694141388, -0.07884110510349274, 0.1265087127685547, 0.12664014101028442, -0.15166407823562622, 0.2063673585653305, -0.1705830842256546, 0.024640168994665146, -0.2259712964296341]]]}, {"bias": -0.030946478247642517, "weights": [[[-0.01778673753142357, -0.14928436279296875, 0.06526897102594376, -0.21663793921470642, -0.2081332504749298, 0.011814705096185207, -0.09317313879728317, 0.01866893656551838, -0.07728465646505356, 0.1123252585530281], [0.055524829775094986, -0.15708819031715393, -0.2023865282535553, -0.08249390870332718, -0.12414230406284332, -0.061592359095811844, 0.000547802250366658, -0.05503997206687927, 0.005416074767708778, 0.24877680838108063], [-0.2512487769126892, -0.10077410936355591, -0.09888111054897308, 0.2002720683813095, 0.17060819268226624, 0.008740579709410667, 0.015179043635725975, 0.09054794907569885, -0.0038444544188678265, 0.2678379714488983]], [[-0.09923797845840454, -0.04057412967085838, -0.245882049202919, 0.1290360987186432, -0.14763124287128448, -0.1831669807434082, 0.05102115124464035, -0.0010768667561933398, -0.13185711205005646, 0.3591008186340332], [-0.0797826498746872, -0.03538031876087189, -0.021188803017139435, 0.22253850102424622, 0.0034152076113969088, 0.03619632124900818, 0.149659663438797, -0.11191590875387192, 0.03217282518744469, 0.275596022605896], [0.07781868427991867, 0.04882228374481201, -0.046580661088228226, -0.1377953141927719, -0.10446100682020187, -0.019474633038043976, 0.01606374979019165, -0.14844168722629547, -0.10498500615358353, 0.08936011046171188]], [[0.053097762167453766, -0.07402550429105759, -0.09391546994447708, -0.10708776861429214, -0.001632806845009327, -0.031672924757003784, 0.07123780995607376, -0.05453033000230789, 0.06254744529724121, -0.005342626478523016], [0.0037170182913541794, -0.0008027352159842849, -0.21965891122817993, -0.07320304214954376, -0.20519372820854187, 0.041907262057065964, 0.07054032385349274, 0.10192466527223587, 0.08344259113073349, 0.22015732526779175], [-0.09908966720104218, -0.05616431310772896, 0.07668272405862808, -0.10269737243652344, -0.10638999193906784, -0.24537554383277893, 0.1169833168387413, -0.04140615090727806, -0.05311627313494682, -0.1985497623682022]]]}, {"bias": 0.039700429886579514, "weights": [[[0.11100973188877106, -0.08549870550632477, -0.2784796357154846, -0.047252677381038666, -0.20656847953796387, 0.011591849848628044, 0.07377035170793533, -0.12677466869354248, 0.0317995660007, 0.1549409031867981], [0.09316615015268326, 0.009931985288858414, -0.2742074728012085, 0.06029172241687775, -0.1469617336988449, 0.07720445841550827, -0.1487494856119156, 0.12651324272155762, -0.06396133452653885, 0.0460357628762722], [0.26841339468955994, -0.15705224871635437, -0.007331827189773321, -0.14219050109386444, 0.026790227741003036, -0.15246760845184326, -0.22214533388614655, -0.12577736377716064, -0.1467444896697998, -0.15512128174304962]], [[-0.06755942851305008, -0.014016453176736832, 0.06256714463233948, -0.10940481722354889, -0.11029607802629471, -0.10146907716989517, 0.16019268333911896, -0.012096047401428223, -0.09953954070806503, 0.16002985835075378], [0.09344662725925446, -0.03324969485402107, 0.007050616666674614, 0.11069376021623611, -0.17798097431659698, -0.07673321664333344, 0.007500464096665382, -0.10401467233896255, -0.012100910767912865, -0.16895683109760284], [0.06589019298553467, -0.01690850406885147, -0.18295161426067352, 0.15601304173469543, -0.251513808965683, 0.2071576714515686, 0.039121855050325394, -0.13188426196575165, 0.12137151509523392, -0.07722079008817673]], [[-0.04689977318048477, -0.08316709846258163, -0.0799124613404274, 0.06521135568618774, 0.030700737610459328, 0.15345856547355652, 0.16377060115337372, 0.10015713423490524, -0.20246265828609467, -0.08149779587984085], [0.11482780426740646, -0.03314753994345665, -0.04737165942788124, -0.20362488925457, 0.009883999824523926, -0.0412067286670208, 0.050686366856098175, -0.10729904472827911, 0.038644179701805115, 0.1717108190059662], [0.14850527048110962, 0.03371637687087059, 0.030660968273878098, -0.16405799984931946, -0.11295176297426224, 0.05466035380959511, -0.034749627113342285, 0.13268771767616272, -0.18705801665782928, -0.11492910236120224]]]}, {"bias": -0.01630188338458538, "weights": [[[-0.14573456346988678, 0.20002193748950958, 0.17264410853385925, 0.18330040574073792, 0.07715874910354614, 0.1641768515110016, -0.06849472969770432, -0.1474713832139969, -0.20531277358531952, -0.18691469728946686], [0.20525285601615906, 0.23971211910247803, 0.09729554504156113, -0.04854542016983032, -0.09777544438838959, 0.05788709968328476, -0.11671239137649536, -0.13537096977233887, -0.0301592368632555, 0.06677991896867752], [-0.00986920390278101, 0.012632916681468487, -0.23533330857753754, -0.11435017734766006, 0.008279496803879738, -0.06880389153957367, -0.06254677474498749, -0.22631117701530457, 0.2140635997056961, -0.36682742834091187]], [[-0.046891290694475174, 0.0871630385518074, 0.0807933658361435, -0.039747096598148346, 0.024895133450627327, -0.06050882115960121, 0.10300353169441223, 0.004033358301967382, 0.06741945445537567, 0.16517658531665802], [0.11296547949314117, 0.0648835152387619, -0.23511746525764465, 0.03330524265766144, -0.03325369209051132, -0.13666625320911407, -0.19486188888549805, 0.02077852562069893, 0.028338002040982246, -0.07841160148382187], [-0.00232702842913568, 0.10558120906352997, -0.2069447934627533, -0.009925064630806446, -0.1561441421508789, -0.21745112538337708, 0.11332768946886063, -0.16130682826042175, 0.0003099656314589083, -0.009118250571191311]], [[0.1573837399482727, -0.05682254955172539, -0.08121998608112335, -0.01810016855597496, 0.087300606071949, 0.20561963319778442, -0.03244760259985924, -0.1077440157532692, 0.00859660655260086, 0.19814077019691467], [0.06280548870563507, 0.1990644931793213, -0.009308740496635437, 0.05424489825963974, 0.06415337324142456, -0.10821084678173065, 0.025620868429541588, 0.045261282473802567, -0.2162156105041504, 0.10464762896299362], [-0.15678395330905914, 0.1671653389930725, -0.27281108498573303, -0.0125496294349432, -0.11404386162757874, -0.1353093683719635, -0.030513927340507507, -0.1811813861131668, 0.11979392915964127, 0.02780838869512081]]]}, {"bias": -0.028338946402072906, "weights": [[[-0.1097443476319313, -0.08561524748802185, 0.02836516872048378, 0.03883524239063263, -0.09141905605792999, -0.00635158084332943, 0.01724092848598957, 0.10635256767272949, -0.05130717158317566, 0.19132274389266968], [-0.025233082473278046, 0.17464464902877808, 0.17029330134391785, -0.04331641644239426, 0.0025566546246409416, -0.16530495882034302, -0.15868131816387177, -0.05964667722582817, 0.10305849462747574, 0.03701081499457359], [0.1444990187883377, 0.009783768095076084, -0.07487373799085617, 0.01935591921210289, -0.040318574756383896, 0.07518256455659866, 0.11419225484132767, 0.2612316906452179, -0.0391945019364357, -0.2603943943977356]], [[-0.07786700874567032, 0.010524432174861431, 0.12912489473819733, 0.11679040640592575, 0.17014089226722717, -0.17849136888980865, 0.16927920281887054, -0.13014069199562073, -0.206651970744133, 0.19956038892269135], [-0.05851493030786514, 0.17010073363780975, 0.05526765063405037, 0.10853110998868942, 0.10394472628831863, 0.02541562169790268, -0.025276685133576393, -0.030926231294870377, -0.0684080645442009, 0.12463968247175217], [-0.03597467020153999, 0.08847565203905106, 0.16374683380126953, -0.03328853100538254, -0.007938466034829617, 0.017520388588309288, -0.20852619409561157, 0.15464071929454803, 0.02760479226708412, -0.2591438591480255]], [[-0.10334358364343643, 0.15213561058044434, 0.1651894599199295, 0.21335870027542114, 0.12788505852222443, -0.0334906205534935, -0.062119051814079285, 0.13796311616897583, -0.18029989302158356, 0.1820923238992691], [0.13008451461791992, -0.13021722435951233, -0.06478030234575272, 0.03372564911842346, -0.08644066005945206, 0.053632788360118866, -0.06141430884599686, -0.08442109823226929, -0.1499495804309845, -0.012434404343366623], [0.11670668423175812, -0.27850720286369324, -0.1602603942155838, -0.1348467469215393, 0.1558505892753601, -0.0988156646490097, -0.15227341651916504, -0.04329880699515343, -0.04735346511006355, 0.0010467545362189412]]]}]}, {"name": "output", "input_shape": [null, 8410], "output_shape": [null, 2], "num_neurons": 2, "weights": [{"bias": 0.09419175237417221, "weights": [-0.07673689723014832, -0.03491980582475662, 0.029496418312191963, -0.07978296279907227, 0.08161671459674835, 0.013075660914182663, -0.07204355299472809, 0.02115686424076557, 0.05339423194527626, 0.01932305470108986, -0.0938529372215271, -0.06830959767103195, -0.00902774278074503, -0.10290412604808807, 0.02668263390660286, 0.014998285099864006, -0.09975403547286987, 0.028287984430789948, 0.025210952386260033, -0.008012224920094013, -0.19193050265312195, -0.09590062499046326, 0.0022483798675239086, -0.09965627640485764, -0.043689072132110596, 0.009204010479152203, -0.12183139473199844, -0.043626900762319565, 0.030960319563746452, -0.04094326123595238, -0.17768965661525726, -0.09205751866102219, 0.1675582230091095, -0.10710348188877106, -0.007671917323023081, 0.009684581309556961, -0.12296197563409805, -0.03581661731004715, 0.010931286960840225, -0.060434043407440186, -0.17941756546497345, -0.11741849035024643, 0.2126617133617401, -0.10652657598257065, -0.03198854997754097, 0.050439316779375076, -0.1467350870370865, -0.06391291320323944, 0.054970089346170425, -0.06231757625937462, -0.15369214117527008, -0.13051016628742218, 0.11091037839651108, -0.050371330231428146, -0.014673828147351742, 0.03221401944756508, -0.1465626060962677, -0.05486766993999481, -0.02088138647377491, -0.05715033784508705, -0.15077564120292664, -0.16650554537773132, 0.17461267113685608, -0.08180493861436844, -0.000664689636323601, -0.008168648928403854, -0.13728536665439606, -0.0713125616312027, -0.01743055135011673, -0.05105558782815933, -0.1571427434682846, -0.14037053287029266, 0.13881991803646088, -0.03718921169638634, 0.02955477498471737, 0.0044496008194983006, -0.06637074798345566, -0.03389842063188553, -0.011965611949563026, -0.04996557533740997, -0.1378270834684372, -0.11277171969413757, 0.10240572690963745, -0.022766800597310066, 0.04789938032627106, -0.016214000061154366, -0.05457611382007599, 0.005545875523239374, 0.006043335422873497, -0.09501785784959793, -0.16554811596870422, -0.133966326713562, 0.11936862021684647, -0.045135363936424255, 0.008167358115315437, -0.035644516348838806, -0.044446639716625214, -0.026621337980031967, 0.04574696719646454, -0.081540547311306, -0.08200880885124207, -0.13730336725711823, 0.1391717791557312, 0.0007487247930839658, -0.02122572995722294, -0.03386204317212105, -0.047645628452301025, -0.013557793572545052, -0.04037829488515854, -0.08620558679103851, -0.1816844493150711, -0.11264084279537201, 0.04825528338551521, -0.043101754039525986, 0.02476102113723755, -0.0048486003652215, -0.10815008729696274, -0.0024452991783618927, -0.08492651581764221, -0.09455330669879913, -0.15673045814037323, -0.1904270201921463, 0.021539686247706413, -0.03925105184316635, 0.03030940145254135, -0.013682066462934017, -0.0688876286149025, 0.019325807690620422, -0.022061388939619064, -0.05459975823760033, -0.15265078842639923, -0.15005797147750854, -0.020210418850183487, -0.04485813155770302, 0.03066616877913475, -0.011539478786289692, -0.022069785743951797, -0.020873574540019035, -0.012735731899738312, -0.035077374428510666, -0.13311931490898132, -0.21983696520328522, -0.07167679071426392, -0.013031993061304092, 0.02402457222342491, 0.007073818705976009, -0.028378577902913094, -0.01733746938407421, -0.03492401912808418, -0.07626628875732422, -0.11423853039741516, -0.09679420292377472, -0.07031341642141342, -0.0705634281039238, 0.028460996225476265, -0.0045277439057827, -0.006082664709538221, -0.009444436058402061, -0.027953818440437317, -0.06269794702529907, -0.07379943132400513, -0.09347055107355118, -0.0439133420586586, -0.011677904054522514, 0.06896461546421051, -0.013812101446092129, 0.04982902109622955, -0.010539980605244637, 0.05679267644882202, -0.03514210879802704, -0.04919717088341713, -0.04922778904438019, -0.0530807264149189, -0.021510913968086243, 0.04705239087343216, -0.024168146774172783, 0.07691184431314468, -0.02545701526105404, 0.08031151443719864, -0.004943817388266325, -0.07370730489492416, -0.07425347715616226, -0.16099998354911804, -0.10747549682855606, 0.056443411856889725, -0.04421011358499527, 0.0494866818189621, -0.041204653680324554, 0.04248471558094025, 0.02080647274851799, -0.009128563106060028, -0.025835074484348297, -0.1228628158569336, -0.15770943462848663, 0.03525765985250473, -0.028788669034838676, 0.006668516900390387, -0.04902682825922966, 0.0546298511326313, 0.031444743275642395, -0.009181970730423927, -0.05908605456352234, -0.17310559749603271, -0.10521648079156876, -0.007451111916452646, -0.04294520616531372, -0.02142925374209881, -0.005227808374911547, 0.0033537892159074545, -0.015611938200891018, 0.043855372816324234, -0.016168629750609398, -0.14732228219509125, -0.13009025156497955, 0.007533819880336523, 0.015586468391120434, 0.0816250741481781, 0.037523433566093445, -0.01037746760994196, 0.006419267971068621, -0.09235993772745132, -0.02525940351188183, -0.1486915498971939, -0.08283353596925735, 0.00660552317276597, -0.0082795899361372, 0.07954180240631104, -0.02572585642337799, 0.08135634660720825, -0.011277749203145504, -0.05327219143509865, -0.035243336111307144, -0.08616708964109421, -0.03192649036645889, 0.03799300268292427, 0.007153060287237167, 0.07865836471319199, -0.01835155114531517, 0.03251130133867264, 0.003940148279070854, -0.04243087023496628, -0.005486128851771355, -0.08062425255775452, -0.08596335351467133, 0.03838086128234863, -0.0004246349271852523, 0.1043706163764, -0.01889074221253395, 0.015277426689863205, 0.04603804275393486, -0.10115750879049301, -0.005762497428804636, 0.01177854835987091, -0.07444821298122406, 0.0146872503682971, 0.005924759898334742, 0.08730628341436386, -0.01616101711988449, 0.038590990006923676, 0.05328173562884331, -0.09619295597076416, 0.015322155319154263, -0.032594818621873856, -0.037976428866386414, 0.010822530835866928, -0.008603977970778942, 0.052664220333099365, 0.0019009469542652369, 0.027507783845067024, 0.05237142741680145, -0.035460215061903, 0.04404060170054436, 0.026689546182751656, -0.024200839921832085, 0.05771223455667496, 0.011172952130436897, -0.044491369277238846, 0.008860401809215546, 0.005679790861904621, 0.0018441142747178674, -0.0604541040956974, -0.09044311940670013, 0.0574071891605854, -0.1301722377538681, 0.055209700018167496, 0.001684197224676609, -0.05514361336827278, 0.002346764085814357, -0.03529522567987442, 0.049017831683158875, -0.1198563501238823, -0.13000082969665527, 0.03082188591361046, -0.05885753035545349, 0.04822114109992981, -0.014563176780939102, -0.06550241261720657, 0.007374630309641361, 0.11464332044124603, 0.026617739349603653, -0.10591475665569305, -0.07218248397111893, 0.07101502269506454, 0.0039205607026815414, 0.013845204375684261, 0.006341500207781792, -0.04565693065524101, 0.004106119275093079, 0.10854263603687286, -0.021433571353554726, -0.1196565330028534, -0.03553541377186775, 0.05783785134553909, -0.01176039595156908, 0.016916552558541298, 0.02957317978143692, -0.081632599234581, -0.015748294070363045, 0.06992951035499573, -0.054164137691259384, -0.12671387195587158, -0.16265049576759338, 0.09022871404886246, 0.011046968400478363, 0.021300526335835457, 0.024034686386585236, -0.09416672587394714, -0.08005369454622269, 0.02489987201988697, -0.08083532750606537, -0.15007856488227844, -0.10282596200704575, 0.1559576690196991, 0.04351126030087471, 0.025843646377325058, -0.006710824556648731, -0.09256263077259064, -0.04902805760502815, 0.10890292376279831, -0.09291352331638336, -0.08267389982938766, -0.06950327754020691, 0.08771411329507828, 0.0048296209424734116, -0.011346026323735714, -0.012872891500592232, -0.0716104656457901, -0.04701549932360649, -0.0018423645524308085, -0.06689717620611191, -0.1416044980287552, -0.08062780648469925, 0.15073983371257782, 0.012875828891992569, 0.0037136408500373363, 0.024943165481090546, -0.1192416176199913, -0.050536856055259705, 0.04104837402701378, -0.05788673460483551, -0.10276613384485245, -0.09339052438735962, 0.1301112174987793, 0.11370018869638443, -0.014677900820970535, 0.021886879578232765, -0.1418001353740692, -0.0764637142419815, 0.02005009539425373, -0.07743711024522781, -0.09573725610971451, -0.14778248965740204, 0.06638292223215103, 0.08045604079961777, 0.01518370769917965, -0.016774768009781837, -0.005494666751474142, -0.03953567147254944, 0.04190057888627052, -0.06895142048597336, -0.039946049451828, -0.177565336227417, 0.06600607186555862, 0.006567005999386311, -0.01624327525496483, 0.006984545383602381, 0.010223543271422386, -0.036245718598365784, 0.07253707200288773, -0.02807815745472908, -0.11987081915140152, -0.0758499875664711, 0.07009972631931305, 0.08321695774793625, -0.0047070737928152084, -0.004449568688869476, -0.0045772455632686615, -0.0013826109934598207, 0.02146180346608162, -0.07051285356283188, -0.10284534841775894, -0.1086079329252243, 0.1116768941283226, 0.0015209221746772528, 0.006977675016969442, -0.04726935550570488, -0.09947936981916428, -0.04798347130417824, -0.013361155055463314, -0.03809697553515434, -0.05025750771164894, -0.1138426810503006, 0.021750861778855324, -0.0045470865443348885, -0.03361504152417183, -0.051668085157871246, -0.054864101111888885, -0.04910055920481682, 0.0814058929681778, 0.011124775744974613, -0.0816861018538475, -0.12339484691619873, -0.013391614891588688, -0.043236471712589264, -0.0372687429189682, -0.03538842871785164, 0.014011336490511894, -0.0013730807695537806, 0.03685232251882553, -0.037039615213871, -0.07932247966527939, -0.050291746854782104, -0.054149556905031204, 0.019939063116908073, -0.005554633215069771, -0.05644864961504936, 0.0007673389627598226, -0.013594849966466427, 0.01547157671302557, -0.05273611471056938, -0.062230855226516724, -0.048102401196956635, -0.09597332030534744, -0.030307738110423088, 0.004290886223316193, -0.04885214939713478, 0.0660972073674202, -0.03444170206785202, 0.05205342918634415, 0.0029666500631719828, -0.015111606568098068, -0.08601425588130951, -0.09840919822454453, -0.04153529182076454, -0.029762964695692062, -0.03313925117254257, 0.15039382874965668, -0.06665630638599396, 0.015662148594856262, 0.041305139660835266, -0.009509501978754997, -0.12513065338134766, -0.0864398404955864, -0.07887081801891327, 0.03392038121819496, -0.030169447883963585, 0.13474862277507782, -0.013336898759007454, 0.04170319065451622, 0.04018697142601013, 0.0011792657896876335, -0.09626442939043045, -0.10816793888807297, -0.059631068259477615, 0.028930669650435448, -0.04787742719054222, 0.04790785536170006, -0.07390449196100235, 0.046273164451122284, 0.040675707161426544, -0.005868775770068169, -0.0459471233189106, -0.08984287083148956, -0.08364778757095337, 0.004692356567829847, -0.025625675916671753, 0.04575760290026665, -0.02900101989507675, 0.011566316708922386, 0.034086402505636215, -0.026464564725756645, -0.08659841120243073, -0.11664561182260513, 0.026098407804965973, 0.03811240568757057, -0.029088161885738373, 0.12894690036773682, -0.06194690987467766, 0.001903151860460639, -0.0025640155654400587, -0.01845955103635788, -0.08957383781671524, -0.16772913932800293, -0.05942649766802788, 0.007311504799872637, 0.0018152062548324466, 0.1405121088027954, -0.010312363505363464, -0.04338124021887779, 0.06369291245937347, 0.0011924570426344872, -0.07400620728731155, -0.21727794408798218, -0.014166932553052902, 0.057129133492708206, -0.033379845321178436, 0.1527412384748459, -0.01598713919520378, 0.05127408355474472, 0.03957226499915123, -0.07863908261060715, -0.09335474669933319, -0.1959778517484665, -0.001596816349774599, 0.04800141602754593, -0.017809415236115456, 0.09142013639211655, 0.012971177697181702, 0.021508196368813515, 0.017219968140125275, -0.09221694618463516, -0.025052500888705254, -0.2134314775466919, -0.09830550104379654, 0.020906349644064903, -0.016183681786060333, 0.10390836745500565, -0.020830854773521423, 0.048691391944885254, 0.07497961819171906, -0.058572299778461456, -0.00499523151665926, -0.11293938010931015, -0.060501422733068466, 0.0018507748609408736, 0.024499593302607536, 0.03999247029423714, -0.026009436696767807, 0.018806753680109978, 0.08486385643482208, 0.006593023892492056, -0.04175550490617752, -0.014044852927327156, -0.013056681491434574, 0.032718293368816376, -0.01040505338460207, 0.057440970093011856, -0.018395032733678818, 0.04437557980418205, 0.051763877272605896, -0.01430843211710453, -0.09850826859474182, -0.03458747640252113, -0.04453043267130852, 0.057842917740345, 0.01729431562125683, 0.04124286025762558, 0.004350308328866959, 0.006180667784065008, 0.049106329679489136, -0.07628896832466125, -0.10638915002346039, 0.03678857535123825, -0.08392191678285599, 0.0970417782664299, 0.019707120954990387, 0.053282320499420166, 0.019536364823579788, -0.0067312330938875675, -0.015525971539318562, -0.14088933169841766, -0.11903788149356842, 0.09575768560171127, -0.006905671209096909, 0.01831028051674366, 0.0022254944778978825, -0.04038427025079727, -0.012617435306310654, 0.11224181205034256, 0.005325783509761095, -0.14339108765125275, -0.06420093029737473, 0.10195553302764893, 0.0012719708029180765, 0.03719082474708557, 0.03693022206425667, -0.011150713078677654, -0.037263769656419754, 0.0566437803208828, -0.014568233862519264, -0.07441089302301407, -0.08776947110891342, 0.10333551466464996, 0.044023942202329636, 0.01240593008697033, -0.00351373921148479, -0.06124177202582359, -0.03292600065469742, 0.05198979377746582, -0.07949411123991013, -0.139957457780838, -0.08476962149143219, 0.09203827381134033, 0.027068860828876495, -0.007420664187520742, 0.002195031149312854, -0.1276252716779709, -0.04599250108003616, -0.0035061477683484554, -0.05954654514789581, -0.1156972125172615, -0.10067158937454224, 0.12263153493404388, 0.03323253616690636, 0.03716861084103584, 0.023973090574145317, -0.08020144701004028, -0.06238143518567085, 0.03252124786376953, -0.023007644340395927, -0.17310699820518494, -0.08012180775403976, 0.1156499832868576, -0.005775023717433214, 0.03164811432361603, -0.006041565909981728, -0.0676816999912262, -0.10087273269891739, 0.0333729162812233, -0.01797441951930523, -0.15015091001987457, -0.13921602070331573, 0.14861400425434113, -0.00903013814240694, 0.0077212294563651085, 0.039755929261446, -0.0930793285369873, -0.044863153249025345, 0.06362356245517731, -0.0008897864609025419, -0.09114576876163483, -0.16389980912208557, 0.13282373547554016, 0.041647881269454956, 0.03633689135313034, -0.021740714088082314, -0.03121972270309925, -0.009376108646392822, 0.09279714524745941, -0.028356509283185005, -0.05540362745523453, -0.17432592809200287, 0.024644045159220695, 0.11924254894256592, -0.009553567506372929, -0.010940143838524818, 0.029003381729125977, -0.02989710308611393, 0.11025720089673996, -0.054966654628515244, -0.08245554566383362, -0.10772310197353363, 0.10031834244728088, 0.040201835334300995, -0.018351398408412933, -0.034832894802093506, -0.060902584344148636, -0.04194914549589157, 0.09518589824438095, -0.09621667116880417, -0.1273948848247528, -0.11273780465126038, -0.007119759917259216, 0.053736697882413864, -0.02635033242404461, -0.017143836244940758, -0.13421323895454407, -0.05864833667874336, 0.0700807273387909, -0.0851137638092041, -0.13834242522716522, -0.11154859513044357, -0.0737810805439949, 0.030852602794766426, -0.026112133637070656, -0.061284083873033524, -0.10795433074235916, -0.008961314335465431, 0.022871792316436768, -0.054106589406728745, -0.13811834156513214, -0.08787943422794342, 0.026724055409431458, 0.020649680867791176, 0.01292127650231123, -0.0706835463643074, -0.013847333379089832, 0.029114820063114166, 0.07293448597192764, -0.09971020370721817, -0.09103350341320038, -0.13859695196151733, -0.017781004309654236, 0.0017401737859472632, 0.031027287244796753, -0.07035379856824875, 0.04718038812279701, -0.024425266310572624, 0.06192750111222267, -0.019727841019630432, -0.06148489937186241, -0.12901753187179565, -0.06406477093696594, 0.01978968270123005, -0.018664011731743813, -0.07215553522109985, 0.056368231773376465, -0.03126006945967674, 0.026697926223278046, -0.01250370778143406, -0.003222907893359661, -0.06445199251174927, -0.017049120739102364, 0.046949129551649094, -0.007810699287801981, -0.06517332047224045, 0.057768773287534714, -0.01665053889155388, 0.06718777120113373, -0.006299312226474285, 0.0490112267434597, 0.0003017433627974242, -0.05797690898180008, 0.030268792062997818, -0.03510410338640213, -0.016968125477433205, 0.04556916654109955, -0.01430103275924921, 0.08769239485263824, 0.019807040691375732, -0.04062514379620552, -0.0274039376527071, -0.08089261502027512, -0.005769108887761831, -0.0041103605180978775, -0.0037806404288858175, 0.05450362339615822, 0.025135381147265434, 0.0765727087855339, -0.011845436878502369, -0.06648160517215729, -0.05645723640918732, -0.16992327570915222, -0.05820697918534279, -0.0038717486895620823, -0.056802719831466675, -0.018554674461483955, -0.011238697916269302, 0.0017741828924044967, -0.0078913364559412, -0.01815340667963028, -0.07354961335659027, -0.1232677474617958, -0.05616402626037598, -0.001121475244872272, -0.018879413604736328, 0.00435658497735858, -0.032598890364170074, -0.0343344584107399, 0.03809500113129616, -0.0448867604136467, -0.05211472138762474, -0.11273955553770065, -0.02721739001572132, -0.04234611243009567, -0.03384559229016304, 0.10258278995752335, -0.04450143128633499, -0.02651422843337059, 0.05451605096459389, -0.0060859802179038525, -0.02618345059454441, -0.08787000924348831, -0.07659128308296204, -0.027258696034550667, -0.05349991098046303, 0.06627906858921051, -0.038398582488298416, 0.0261020977050066, 0.014621024951338768, 0.02975434996187687, -0.05388551577925682, -0.15946145355701447, -0.018910150974988937, 0.005625980440527201, -0.019545651972293854, 0.03877761587500572, -0.07290397584438324, 0.05264724791049957, 0.012016985565423965, -0.045336101204156876, -0.024114226922392845, -0.13072367012500763, -0.02448389120399952, 0.019822487607598305, -0.013177236542105675, 0.05937693268060684, -0.051102377474308014, 0.05021178349852562, 0.010384658351540565, -0.04267118498682976, -0.03271781653165817, -0.16116580367088318, -0.03737598657608032, -0.002858114894479513, -0.031619466841220856, 0.02885853871703148, -0.07088826596736908, 0.0346294529736042, 0.01563756912946701, -0.039006926119327545, -0.02595853991806507, -0.12300875782966614, -0.069575235247612, 0.03961606323719025, -0.011285755783319473, 0.05507489666342735, 0.007951292209327221, -0.02182401344180107, 0.07532007247209549, -0.03212730213999748, -0.03584403172135353, -0.07398079335689545, -0.09232113510370255, 0.05309126898646355, -0.02745562233030796, 0.03701303154230118, -0.030837958678603172, 0.025844018906354904, 0.03680967912077904, -0.11982620507478714, -0.0760347843170166, -0.04348590224981308, -0.04055817052721977, 0.016315283253788948, 0.019825072959065437, 0.044781871140003204, -0.015125154517591, -0.0025170613080263138, 0.008648447692394257, -0.09357263147830963, -0.10079093277454376, 0.06237000599503517, -0.1274530589580536, 0.06343843042850494, 0.006503243464976549, 0.062486231327056885, -0.0028230019379407167, -0.1094086691737175, 0.049542635679244995, -0.1375928670167923, -0.13526396453380585, 0.1081312894821167, -0.04444819688796997, 0.0028873600531369448, 0.013539277017116547, -0.055751580744981766, 0.0580156147480011, 0.05563022196292877, 0.04346043989062309, -0.10044869780540466, -0.08404454588890076, 0.07868890464305878, -0.011064046993851662, -0.006387581583112478, 0.03646037355065346, -0.130311518907547, -0.029079832136631012, -0.030462315306067467, -0.03987022116780281, -0.1726486086845398, -0.08738227188587189, 0.10641054064035416, 0.03941003605723381, 0.004976494703441858, -0.029593419283628464, -0.0884450376033783, -0.028624022379517555, -0.005591957829892635, -0.04134829714894295, -0.06713619083166122, -0.05496678873896599, 0.033796925097703934, 0.05154092237353325, -0.027434995397925377, 0.019350213930010796, -0.08585561811923981, -0.0675388053059578, 0.03125731274485588, -0.03376846760511398, -0.09416831284761429, -0.08906278759241104, 0.15825001895427704, 0.03148752823472023, -0.013802384957671165, 0.028668688610196114, -0.08289574831724167, -0.060152318328619, 0.004378998652100563, -0.031136853620409966, -0.11305613815784454, -0.1578027307987213, 0.08869890123605728, 0.07084089517593384, -0.005519196856766939, 0.03363010659813881, -0.03891599178314209, -0.05634627118706703, 0.054542601108551025, -0.03714729845523834, -0.09128439426422119, -0.16903094947338104, 0.09167373180389404, 0.07458526641130447, 0.036795686930418015, -0.007936150766909122, -0.012325815856456757, -0.02840730920433998, 0.0312904492020607, -0.15591870248317719, -0.12419836223125458, -0.10474622249603271, 0.08365463465452194, 0.1125575453042984, 0.004287945572286844, -0.01568346843123436, 0.015214018523693085, -0.06422877311706543, 0.06626114249229431, -0.08837354183197021, -0.14570802450180054, -0.0664050504565239, 0.09449080377817154, 0.1012069433927536, -0.03309302031993866, 0.00667595025151968, -0.08817646652460098, -0.06972770392894745, 0.060000885277986526, -0.0895528569817543, -0.10147510468959808, -0.08330349624156952, 0.08711683005094528, 0.07358687371015549, -0.00654846103861928, -0.026378169655799866, -0.03367331624031067, -0.08658643811941147, 0.047388896346092224, -0.1251450777053833, -0.09481201320886612, -0.09839426726102829, 0.0728408694267273, 0.003140134271234274, -0.02453506551682949, -0.031244410201907158, -0.10681600123643875, -0.009339964017271996, 0.019928403198719025, -0.12520599365234375, -0.07805853337049484, -0.10897690802812576, -0.01366893295198679, 0.0026290833484381437, -0.018850577995181084, -0.03343546763062477, -0.04566961154341698, -0.05146177113056183, 0.02637181058526039, -0.07400786131620407, -0.10521737486124039, -0.06575892120599747, -0.019243614748120308, 0.006155774928629398, 0.027208877727389336, -0.048130832612514496, 0.04883503541350365, 0.016096381470561028, 0.018995869904756546, -0.10230166465044022, -0.03836089372634888, -0.0927949845790863, -0.019604461267590523, -0.033983342349529266, 0.0220402292907238, -0.044750701636075974, 0.07267368584871292, 0.018583379685878754, 0.07825218141078949, -0.046807389706373215, 0.015581931918859482, -0.05486093834042549, -0.11499182134866714, 0.007205924019217491, 0.02849157340824604, -0.061197806149721146, 0.033466026186943054, -0.0066885813139379025, 0.07263487577438354, -0.07448107749223709, -0.009862822480499744, -0.04609457775950432, -0.08774086833000183, 0.027926195412874222, 0.008176732808351517, -0.05160050466656685, 0.074051633477211, 0.01933853141963482, 0.07463755458593369, -0.052438732236623764, -0.021457193419337273, -0.012781750410795212, -0.04952268674969673, 0.08450683951377869, 0.004835637751966715, -0.026474591344594955, 0.0028987142723053694, 0.015459828078746796, 0.09936236590147018, 0.017082808539271355, -0.03093545511364937, -0.05888102576136589, -0.07375743985176086, 0.025438852608203888, 0.0513966828584671, -0.051298338919878006, 0.0358891561627388, -0.01729724556207657, 0.00430653290823102, 0.008137043565511703, 0.034443799406290054, -0.09174858033657074, -0.08440513908863068, -0.017658380791544914, 0.013281311839818954, -0.05098506808280945, 0.027981633320450783, 0.013388894498348236, 0.056968484073877335, 0.018797792494297028, 0.014494585804641247, -0.02303536795079708, -0.13112634420394897, -0.021460117772221565, 0.021085845306515694, -0.04486267268657684, 0.07242145389318466, -0.008677161298692226, 0.042964231222867966, 0.03156584873795509, 0.0030131442472338676, -0.05472120642662048, -0.18926821649074554, 0.02115730009973049, -0.03312280774116516, -0.022218303754925728, 0.06821063905954361, -0.026147041469812393, 0.03198390081524849, 0.008150937035679817, -0.06948310136795044, -0.018922796472907066, -0.08308323472738266, -0.044299133121967316, -0.034982625395059586, -0.01778745837509632, 0.07841832935810089, -0.0754513293504715, -0.061107732355594635, -0.003972520586103201, 0.024206409230828285, -0.021551009267568588, -0.13472780585289001, -0.04103552922606468, -0.009450768120586872, -0.013173258863389492, 0.0939183160662651, -0.0940292477607727, -0.014137137681245804, 0.07541364431381226, -0.0014098631218075752, -0.014710038900375366, -0.1704123318195343, -0.06689796596765518, 0.00359196774661541, -0.02995462901890278, 0.028483031317591667, -0.05341818183660507, -0.009929051622748375, 0.04600748047232628, 0.03192516788840294, -0.03384369984269142, -0.08575769513845444, 0.04401548579335213, 0.011784550733864307, 0.008764767087996006, 0.07102245092391968, -0.054858773946762085, 0.01607823185622692, 0.05168343335390091, -0.018827831372618675, -0.045920953154563904, -0.08941196650266647, -0.0019136964110657573, 0.015348123386502266, 0.024000737816095352, 0.07988698035478592, -0.02427293173968792, 0.0036151856184005737, 0.04252893850207329, -0.011473397724330425, 0.0032598681282252073, -0.015469794161617756, -0.002213768195360899, 0.012079325504601002, -0.006079208105802536, 0.0938674807548523, -0.0005399039364419878, 0.010642537847161293, -0.003062307136133313, -0.048822518438100815, -0.09350958466529846, -0.01716040074825287, 0.019364142790436745, 0.017682215198874474, 0.005493513774126768, 0.0189657099545002, -0.020702969282865524, 0.053610652685165405, 0.04227190464735031, -0.07991684973239899, -0.13682475686073303, -0.025382863357663155, -0.02405804768204689, 0.01459830068051815, -0.009207624942064285, 0.04238162934780121, -0.02647939696907997, -0.008016368374228477, 0.02811853028833866, -0.14730195701122284, -0.10387319326400757, 0.05866729095578194, -0.0006294439663179219, -0.01239200308918953, 0.010949903167784214, -0.11783850938081741, -0.024299906566739082, 0.1216108426451683, -0.04776986688375473, -0.09597982466220856, -0.019341396167874336, 0.13485771417617798, 0.031451981514692307, 0.03561168536543846, 0.005570035893470049, -0.13056591153144836, -0.04548543319106102, 0.015552020631730556, -0.10636766254901886, -0.0901256650686264, -0.0514247752726078, 0.12362995743751526, 0.050770312547683716, -0.003955661319196224, 0.026838455349206924, -0.05012945458292961, -0.036049459129571915, 0.04814443364739418, -0.025342337787151337, -0.08692522346973419, -0.025583229959011078, 0.08108135312795639, 0.09387829154729843, 0.049395620822906494, -0.003715052269399166, -0.04653821885585785, -0.030894165858626366, 0.029786452651023865, -0.03894601762294769, -0.11071420460939407, -0.06273260712623596, 0.11262369900941849, 0.01298076007515192, 0.009636074304580688, 0.03734896704554558, -0.01380924042314291, -0.06940799206495285, 0.04357017204165459, -0.05537763983011246, -0.1141744926571846, -0.055225905030965805, 0.04373067989945412, 0.1049933135509491, 0.02412387542426586, 0.00471210852265358, -0.1256551295518875, -0.019701384007930756, 0.06601759046316147, -0.07531958818435669, -0.08234266936779022, -0.058657266199588776, 0.05817396193742752, 0.09686209261417389, -0.006268954370170832, 0.007066872902214527, -0.046682536602020264, -0.060360491275787354, 0.042318325489759445, -0.12131522595882416, -0.053624577820301056, -0.04000527039170265, 0.055563878268003464, 0.11626607924699783, 0.012195899151265621, 0.019292855635285378, -0.005959716159850359, -0.05708426982164383, 0.09071706980466843, -0.06666985154151917, -0.11740817874670029, -0.13103008270263672, 0.010758035816252232, 0.1107855960726738, 0.045699331909418106, 0.00907153356820345, -0.012126844376325607, -0.0458131805062294, 0.05955103039741516, -0.09319480508565903, -0.11719326674938202, -0.09686337411403656, 0.0035291300155222416, 0.14532284438610077, 0.04593011736869812, -0.008321931585669518, -0.027151985093951225, -0.06479274481534958, 0.025506172329187393, -0.12147113680839539, -0.1332276165485382, -0.08481794595718384, -0.010525732301175594, 0.1332126408815384, -0.002640119520947337, -0.04662749543786049, -0.11245565116405487, -0.04786073789000511, 0.040526241064071655, -0.09987244009971619, -0.11842018365859985, -0.08090716600418091, 0.005004981067031622, 0.03135276213288307, -0.0626448318362236, -0.04568883031606674, -0.07754376530647278, -0.03928885608911514, 0.01097858976572752, -0.0959230363368988, -0.10436232388019562, -0.036531928926706314, -0.04168739542365074, 0.07532546669244766, 0.004790043458342552, -0.01741776242852211, -0.09105665236711502, -0.07719331979751587, 0.011419574730098248, -0.10204074531793594, -0.04417949914932251, -0.09122472256422043, -0.06731723994016647, 0.053740255534648895, -0.03278860077261925, -0.044700585305690765, -0.05471385642886162, -0.03763411194086075, -0.00513636926189065, -0.13119477033615112, -0.06714051216840744, -0.07306114584207535, -0.14265115559101105, 0.07335742563009262, 0.020503908395767212, -0.05305358022451401, -0.0419318713247776, 0.013675493188202381, -0.001472175121307373, -0.07579640299081802, -0.056862495839595795, -0.055033810436725616, -0.08801974356174469, 0.07295107841491699, 0.026973344385623932, -0.05452834442257881, 0.07500316202640533, 0.007853303104639053, -0.0062945750541985035, -0.05184759944677353, -0.009353414177894592, 0.010761798359453678, -0.05330890789628029, 0.04582575708627701, 0.06357608735561371, -0.054932527244091034, 0.01181773841381073, -0.002264423295855522, 0.04348038509488106, -0.016191847622394562, -0.046362705528736115, -0.007326445542275906, -0.09952754527330399, -0.013093688525259495, 0.017987297847867012, -0.01941901259124279, 0.04702986776828766, -0.016315961256623268, -0.007700111251324415, -0.04180493950843811, -0.00448240153491497, -0.042582422494888306, -0.13059405982494354, -7.997971260920167e-05, -0.003731796517968178, -0.03991542384028435, 0.0697173923254013, -0.031115571036934853, -0.01247014757245779, 0.020576560869812965, -0.0019007730297744274, -0.0004550195299088955, -0.15634968876838684, 0.03638220205903053, -0.021484466269612312, -0.019249312579631805, 0.08166588097810745, -0.027523260563611984, 0.030977465212345123, 0.0019608233124017715, 0.01037447527050972, 0.01304673682898283, -0.12661632895469666, 0.004210236947983503, 0.03728893771767616, -0.04725314676761627, 0.12316129356622696, -0.061670564115047455, -0.003416036954149604, 0.05033300444483757, 0.034159716218709946, -0.02130928449332714, -0.16197405755519867, -0.047008149325847626, -0.021693333983421326, -0.047730788588523865, 0.08515367656946182, -0.05982775613665581, 0.009472918696701527, 0.010323231108486652, -0.01222549844533205, 0.046950533986091614, -0.19226855039596558, -0.02860497310757637, -0.03690337762236595, -0.007284001912921667, 0.0727461725473404, -0.03168031573295593, 0.03975418210029602, 0.03299723565578461, -0.03776223212480545, 0.06571696698665619, -0.16740839183330536, -0.027399960905313492, -0.07630545645952225, -0.01611739583313465, 0.054849009960889816, -0.05643068626523018, 0.014127631671726704, 0.04626704379916191, -0.019174478948116302, 0.012957604601979256, -0.11717301607131958, 0.00964700523763895, -0.00737757608294487, -0.014292305335402489, 0.05398719385266304, -0.06402532011270523, -0.002550622681155801, 0.02809949591755867, -0.041963521391153336, 0.029470112174749374, -0.13982327282428741, 0.006190793123096228, -0.02245127409696579, 0.02134234830737114, 0.08758387714624405, 0.026170937344431877, 0.0453190915286541, 0.05400824919342995, -0.04056474566459656, 0.05715159326791763, -0.019215190783143044, -0.05039195343852043, -0.01765679009258747, 0.02935210056602955, 0.1269933581352234, 0.014240296557545662, 0.04597160592675209, 0.0836842879652977, -0.0888596698641777, 0.002998331794515252, -0.05323140323162079, 0.013136421330273151, 0.024293895810842514, -0.01604650728404522, 0.1174408495426178, -0.022926518693566322, 0.08506836742162704, 0.05198981240391731, -0.15033715963363647, -0.029526451602578163, -0.026640145108103752, -0.00920489989221096, -0.013849353417754173, 0.008389750495553017, 0.09130464494228363, -0.0007491735741496086, -0.01731240749359131, 0.06927253305912018, -0.12066980451345444, -0.08220668137073517, 0.013330002315342426, 0.022213315591216087, 0.03378276154398918, 0.011645062826573849, -0.03661729767918587, 0.0017100729746744037, 0.08058878779411316, 0.001305509707890451, -0.0996391549706459, -0.03253810852766037, 0.1590132713317871, 0.026078395545482635, 0.0063104876317083836, 0.0021316194906830788, -0.05816969275474548, -0.04482685774564743, 0.06558012217283249, -0.00502554327249527, -0.10213495790958405, -0.039203330874443054, 0.1596003621816635, -0.006322420202195644, -0.016132080927491188, -0.013576241210103035, -0.019233565777540207, -0.07884903252124786, 0.024157537147402763, -0.014743426814675331, -0.10040633380413055, -0.045433834195137024, 0.17670857906341553, 0.04060986638069153, 0.01281342376023531, 0.020555775612592697, -0.10627339780330658, 